1940 100
الله 0.3853818 -0.24352121 0.6790675 0.38951382 -0.34737968 0.30264437 -0.33199716 -0.26757893 -0.30906475 -0.21761504 -0.26160628 0.46994638 0.09901672 -0.10919397 -0.3676846 -0.061540432 0.66592467 -0.27462456 -0.55408615 -0.6090052 0.61499304 -0.14185335 -0.093864635 -0.53133136 -0.4533559 -0.015665768 0.18456067 0.06145033 -0.9148384 0.46682462 -0.23004135 0.24612975 -0.5219364 -0.3726076 -0.15643547 0.1661814 0.47229874 0.0046633296 -0.58036584 0.38803762 0.0009193057 0.44828877 0.56163484 0.15777937 -0.08202918 0.3584061 -0.68283033 -0.2515166 -0.16156074 0.30553368 -0.4558161 -0.50460964 0.44893947 -0.5710365 -0.40803066 -0.18381439 0.40295994 0.13813215 0.84468865 0.081329376 -0.23220463 0.37001303 0.6789938 0.103118345 -0.64463913 -0.086755954 -0.068100914 -0.33393452 0.5976169 -0.3903353 0.5742343 0.1365483 -0.39401498 -0.7341898 0.2296995 -0.0756841 -0.6998253 -0.15349469 -0.16341488 0.26656955 -0.36381137 0.2336001 -0.13928069 0.012157893 0.63153124 0.13843459 -0.0069998624 -0.15533566 -0.079447396 -0.5765768 -0.026884824 -0.4609597 -0.5144363 -0.08666875 0.43351656 -0.34456068 0.54497653 0.11548261 -0.079242684 -0.17315078
الرحمن 0.33526072 -0.15245257 0.5317429 0.33256575 -0.3660648 0.2176492 -0.37537667 -0.25838172 -0.30149153 -0.1505184 -0.24612778 0.37402737 0.03343807 -0.32489884 -0.19684842 0.08658407 0.6827605 -0.13576496 -0.58855623 -0.5855841 0.5560501 -0.04883054 0.0183182 -0.5974552 -0.36274928 -0.034165382 0.19489 0.16816431 -0.8210838 0.46820632 -0.25907552 0.21990864 -0.4141634 -0.42312735 -0.21288906 0.20403129 0.32441878 0.013621645 -0.62855756 0.4484251 0.029334063 0.36247516 0.48095953 0.2807744 -0.19055368 0.32280505 -0.6732196 -0.3293893 -0.19184992 0.2696269 -0.41713613 -0.52567434 0.417075 -0.53744805 -0.52135104 -0.14981335 0.34621832 0.10556949 0.8140572 0.13301879 -0.18309869 0.31105235 0.5813075 0.18601424 -0.545828 -0.02398036 -0.10462788 -0.3315653 0.5831512 -0.37134033 0.61843234 0.11640788 -0.28508547 -0.70299727 0.25667152 0.11026299 -0.6146548 -0.14345378 -0.14667593 0.19738671 -0.41155753 0.24912405 -0.12225294 -0.007107707 0.5787208 0.07006461 -0.010047519 -0.17417447 -0.14310633 -0.5200153 0.01648543 -0.33771244 -0.40230873 -0.048412 0.4213569 -0.27332017 0.4385533 -0.023168461 -9.59672e-05 -0.12273479
الرحيم 0.31450158 -0.16843274 0.5152124 0.31341955 -0.31459275 0.2015734 -0.3318363 -0.251164 -0.28018937 -0.1377719 -0.23072508 0.34666553 0.028049124 -0.24724454 -0.19855969 0.044732556 0.60808295 -0.14156659 -0.520213 -0.5512404 0.501832 -0.058018252 0.00047063455 -0.52354443 -0.32481092 -0.022797085 0.18069045 0.12530611 -0.76848066 0.41279882 -0.23724908 0.21443002 -0.39376208 -0.37245557 -0.17247884 0.17999838 0.33315396 0.01461874 -0.55683607 0.39832783 0.028418217 0.33010453 0.44035193 0.2410837 -0.13868028 0.2991518 -0.6239813 -0.27626425 -0.15724385 0.240298 -0.39352754 -0.47095042 0.3695095 -0.48127198 -0.46383202 -0.15254998 0.33790267 0.104585886 0.7333912 0.10882915 -0.16352575 0.28464878 0.5385689 0.141497 -0.5019475 -0.037458725 -0.09141946 -0.3064981 0.5340458 -0.31453654 0.5496181 0.123781934 -0.2731913 -0.6465177 0.22670299 0.06588887 -0.5608325 -0.13773061 -0.13790938 0.1894826 -0.34837472 0.23597166 -0.11838148 -0.011651058 0.53173655 0.080110304 -0.013153706 -0.1559843 -0.13622925 -0.4783269 0.007649319 -0.32985765 -0.3854755 -0.06040746 0.37937754 -0.2720931 0.40797293 -0.008796917 -0.0055287573 -0.12007304
الحمد 0.09727199 -0.027254773 0.13905585 0.09067137 -0.12379391 0.056044526 -0.13014017 -0.09055793 -0.1036036 -0.027300855 -0.075643025 0.08975328 -0.010602597 -0.17484893 -0.013523196 0.07838814 0.22859938 -0.0023443208 -0.20155218 -0.20083128 0.16308317 0.015537525 0.048298806 -0.21712357 -0.097018965 -0.014305658 0.073670246 0.09698433 -0.24624138 0.1569865 -0.10263156 0.064790174 -0.10052552 -0.16386369 -0.09332939 0.08163124 0.07155832 0.007894202 -0.2257282 0.17785038 0.018906273 0.08768099 0.13645072 0.13851213 -0.09498237 0.10508013 -0.23233306 -0.12776469 -0.07006051 0.080921195 -0.13716882 -0.17339513 0.12443932 -0.1720395 -0.22120836 -0.03919894 0.10484827 0.033282746 0.25999635 0.05582329 -0.053307086 0.08456626 0.16708314 0.08644057 -0.1535674 0.010308695 -0.038356796 -0.11506879 0.19938724 -0.11016956 0.22136109 0.040895674 -0.057154745 -0.23996878 0.097335756 0.09245152 -0.17392164 -0.053089134 -0.0437578 0.046337966 -0.14762111 0.08759328 -0.036068764 -0.017731912 0.1748263 0.0009800944 -5.5016244e-05 -0.0709964 -0.07570135 -0.16239922 0.019053472 -0.07854777 -0.10288563 -0.009045178 0.14497887 -0.076422885 0.1096328 -0.05259204 0.030729566 -0.034998484
لله 0.17001241 -0.03221738 0.22453228 0.15757155 -0.21800911 0.08579886 -0.23632357 -0.14605293 -0.18020971 -0.03250293 -0.1341637 0.14217108 -0.028986018 -0.33602834 -0.0023173734 0.14316826 0.4048574 0.010310891 -0.36211514 -0.34457925 0.28044084 0.049553238 0.086670905 -0.39013815 -0.15904605 -0.028769124 0.12297595 0.18144396 -0.42328125 0.2634506 -0.18438965 0.10640805 -0.16388956 -0.2918256 -0.17103443 0.14485055 0.10190075 0.019966962 -0.4046784 0.3113609 0.041317347 0.14727342 0.23523077 0.25675818 -0.18286683 0.17552847 -0.4002901 -0.24447152 -0.124833204 0.13061023 -0.23249131 -0.3074648 0.20843016 -0.3048083 -0.38899606 -0.07365144 0.17148022 0.053642463 0.44642985 0.10568778 -0.09258986 0.1318376 0.2700348 0.16700783 -0.26361203 0.016092334 -0.07542957 -0.19411051 0.33471304 -0.20038785 0.38994595 0.06205793 -0.0840749 -0.41069221 0.1651804 0.18174493 -0.30572876 -0.08720301 -0.071812324 0.070213035 -0.26371682 0.16016752 -0.06267825 -0.02806316 0.30215934 -0.0072320662 -0.0010953717 -0.1269574 -0.13307682 -0.27093038 0.044024106 -0.124331936 -0.16887371 -0.010960062 0.2469552 -0.12552398 0.17666553 -0.11430937 0.06325923 -0.05690033
رب 0.176774 -0.037841007 0.22996008 0.16860987 -0.23133405 0.088055864 -0.23824136 -0.15829194 -0.18235765 -0.037258655 -0.13904132 0.14724235 -0.020118069 -0.33785895 0.008845501 0.15034881 0.41283682 0.016005866 -0.36744276 -0.35382605 0.28467628 0.050832875 0.09187052 -0.39083594 -0.15686756 -0.023069069 0.1302152 0.18589544 -0.4293888 0.2748896 -0.18642555 0.106623605 -0.1674122 -0.29761934 -0.1743075 0.1422877 0.09996796 0.02172417 -0.41011456 0.31600097 0.041150805 0.15452981 0.23438051 0.2599844 -0.18390505 0.18259448 -0.40567055 -0.2495057 -0.12610629 0.12917265 -0.23188639 -0.3127005 0.21811761 -0.30618644 -0.40399426 -0.07870346 0.16937132 0.043961838 0.4611092 0.11510172 -0.08801229 0.13729328 0.27326688 0.16881223 -0.2696547 0.01575895 -0.082310796 -0.20622706 0.3473447 -0.2005104 0.4048351 0.07098739 -0.08692486 -0.418412 0.17201453 0.18823645 -0.31277052 -0.08929079 -0.07528763 0.070144266 -0.2717101 0.16163892 -0.06687445 -0.02554879 0.30230784 -0.008778908 -0.00015763284 -0.12687303 -0.13789287 -0.27778527 0.041787036 -0.12309333 -0.1772977 -0.011392118 0.24999583 -0.13723148 0.18579067 -0.110924274 0.063137464 -0.060085088
العالمين 0.09567637 -0.025354879 0.12095945 0.08635854 -0.12196025 0.04415278 -0.13140905 -0.08400944 -0.10093379 -0.019567698 -0.0804361 0.078560665 -0.0096987905 -0.17705826 -0.0030779503 0.08059707 0.22846486 -0.002525407 -0.2035224 -0.19225444 0.15848136 0.024246044 0.04566346 -0.21015915 -0.09522353 -0.018120265 0.06343086 0.09126865 -0.24119103 0.14813893 -0.09978408 0.061432224 -0.08760517 -0.16404101 -0.09581894 0.076174945 0.059475552 0.010505347 -0.22449535 0.16916516 0.027485276 0.08576604 0.123877615 0.13898051 -0.09699826 0.10391972 -0.22500235 -0.12968557 -0.06970231 0.07316522 -0.12511091 -0.1704459 0.12175936 -0.16620731 -0.21910599 -0.045210846 0.10153098 0.027192522 0.24715616 0.061177548 -0.049972784 0.07762802 0.1473698 0.086983755 -0.14937678 0.0029859035 -0.04483782 -0.11067004 0.1949013 -0.10567707 0.22075072 0.03897444 -0.05662756 -0.22146033 0.09079095 0.09964067 -0.16793856 -0.04922576 -0.0455434 0.037027065 -0.14798196 0.08845968 -0.03378698 -0.0103833955 0.16809101 0.0024175737 -0.0036969727 -0.067472234 -0.07564934 -0.15700015 0.019411692 -0.07446966 -0.097447604 -0.0140275685 0.13439983 -0.07366365 0.1023912 -0.060595512 0.03531834 -0.030277392
يوم 0.18657468 -0.033734992 0.23508139 0.15872484 -0.2516342 0.08190235 -0.26063496 -0.16523169 -0.19413185 -0.034569427 -0.13933215 0.13815236 -0.035236213 -0.37503594 0.01424796 0.1683082 0.43707043 0.022727698 -0.3970219 -0.3697374 0.2930174 0.055638757 0.10477212 -0.4198809 -0.16286235 -0.026018517 0.12858573 0.20924392 -0.45567384 0.2811076 -0.20189515 0.11525368 -0.16485478 -0.31654698 -0.1914703 0.16336846 0.104425654 0.022125399 -0.43540165 0.34301224 0.051038813 0.15751882 0.24518867 0.27725425 -0.19252378 0.19888815 -0.42831925 -0.2553167 -0.13559765 0.13168626 -0.24179332 -0.33797354 0.22822477 -0.3356337 -0.42929664 -0.06464546 0.17529117 0.05634665 0.47874022 0.12048756 -0.094199285 0.13924222 0.28360823 0.1847317 -0.28412557 0.02002872 -0.07689479 -0.20448242 0.35735777 -0.20612362 0.42928162 0.073191054 -0.081503116 -0.4491374 0.18414737 0.2192412 -0.32406935 -0.10031693 -0.08009853 0.075413495 -0.28306827 0.17228411 -0.06627706 -0.029434334 0.31552365 -0.013414195 0.0067205946 -0.13225034 -0.15385407 -0.29202384 0.05324256 -0.12932779 -0.17693578 -0.013898351 0.27492806 -0.13228002 0.18549374 -0.12771969 0.06996007 -0.05445878
الدين 0.120862134 -0.034236066 0.15180771 0.11254659 -0.14918712 0.057054643 -0.1601313 -0.099509805 -0.11808488 -0.026249507 -0.09334917 0.09468331 -0.01530891 -0.21484868 -0.006896981 0.09149345 0.26853326 0.004281448 -0.24788904 -0.23390198 0.1947862 0.027157918 0.05336245 -0.2560238 -0.108099766 -0.019776821 0.079521485 0.113839984 -0.2880164 0.18042961 -0.12141079 0.075157985 -0.11828747 -0.18774092 -0.11015463 0.09427266 0.07789969 0.014362031 -0.26718876 0.21018077 0.026850408 0.10768713 0.16101411 0.16829504 -0.1149689 0.12643526 -0.26770723 -0.15643941 -0.09029906 0.09254185 -0.15391126 -0.2041814 0.14536506 -0.20389287 -0.25630414 -0.048577424 0.119593464 0.029947644 0.30670273 0.07262226 -0.06622596 0.09724749 0.18398392 0.10761287 -0.18162525 0.010484358 -0.04660011 -0.12903854 0.23284552 -0.13301764 0.26244843 0.04910022 -0.060815133 -0.27312526 0.11528297 0.11404254 -0.21036293 -0.05658337 -0.054193005 0.047504812 -0.17889158 0.10442737 -0.046237994 -0.0133715235 0.2000662 0.00022759056 -0.003387731 -0.07560749 -0.083431154 -0.18929249 0.029812183 -0.0869464 -0.112554066 -0.010536859 0.16719094 -0.087994434 0.1197415 -0.063946106 0.035649404 -0.038332492
نعبد 0.009617267 -0.0003840365 0.0104923295 0.0032753316 -0.0038055836 0.0053035496 -0.0074276244 -0.0024990537 -0.0016751917 0.0036393108 -0.008210179 0.007334848 -0.000533844 -0.0145364115 -0.0018357607 0.0018872914 0.015051624 0.0027246603 -0.009064378 -0.0053846384 0.008639047 -0.0002676571 -0.0021492126 -0.01372926 -0.0014978013 0.0009188005 0.003219096 0.0091911815 -0.01235987 0.009519009 -0.010095391 0.0065248334 -0.0052264486 -0.008512903 -0.009230767 0.006964045 0.0021935352 0.004811441 -0.013196849 0.006645077 0.0020198792 0.0072825276 0.0055060294 0.009936918 -0.0021992396 0.002480587 -0.009621597 -0.010079174 -0.0038974518 0.001215124 -0.009592765 -0.009070232 0.0018581031 -0.00594963 -0.008223303 -0.0056555737 0.0034156288 0.0039567603 0.016158417 0.0041912026 0.0015955798 0.0064917104 0.0072796047 0.005035621 -0.0053697135 -0.001493913 9.243144e-06 -0.007672102 0.011025955 -0.008477392 0.014268141 0.0055306614 -0.0010163807 -0.0094831735 0.0045643123 0.0027800128 -0.01342776 0.0020866725 -0.0022482004 0.0068532387 -0.0034916946 0.00464109 -0.006138354 0.001053819 0.0057050576 -0.0012235024 -0.004573225 -0.008088268 -0.008230979 -0.009130431 -0.0012002382 -0.008806745 -0.003759537 -0.004476183 0.011587465 -0.007971548 0.0093848 -0.0047430913 0.00081416353 -0.0019666809
الصراط 0.012316812 -0.0010676006 0.016105996 0.009930534 -0.021411465 0.009557783 -0.016447103 -0.010375091 -0.011781303 0.002360182 -0.0079832 0.011394156 -0.0033414064 -0.023746226 -0.003736157 0.008230334 0.03432213 0.00311761 -0.027238041 -0.022975862 0.024817854 0.00034453848 0.008879554 -0.02847175 -0.012060802 -0.0036475821 0.0046152277 0.012055153 -0.03690359 0.021444794 -0.016556548 0.010295368 -0.007984238 -0.026456725 -0.01583584 0.006854027 0.0057202773 0.0046291803 -0.028995974 0.023115434 0.0022439484 0.006941607 0.02196858 0.023871453 -0.015738096 0.0091187805 -0.03277076 -0.017589346 -0.0073623834 0.011772124 -0.022195298 -0.023056725 0.011863 -0.022796374 -0.032101657 -0.004918655 0.012081961 -0.000454001 0.032766845 0.011046393 -0.0068287533 0.014662714 0.01646294 0.014555639 -0.020498313 -0.00045659285 -0.009128455 -0.01646203 0.022573585 -0.014951411 0.033835612 0.0054100407 -0.0030096425 -0.029104799 0.008968433 0.015659828 -0.02354673 -0.0022718324 -0.010069456 0.0026331781 -0.02063523 0.015980568 -0.0018157973 -0.0037906163 0.023845594 0.0034143121 -0.004607137 -0.004116891 -0.010293773 -0.018375117 0.007323569 -0.010485899 -0.012941009 -1.8324718e-05 0.020810142 -0.005061172 0.015954884 -0.004786172 0.001962178 -0.0035211816
المستقيم 0.0075719655 -0.0011445546 0.0090234345 0.0048925234 -0.0044137943 -0.0002397772 -0.0076994635 -0.004386011 -0.0018681473 0.0022756285 -0.0028541286 0.004739455 0.00046361037 -0.007489326 0.0038409561 0.0071100607 0.012271526 0.0010239261 -0.006506468 -0.0071931253 0.0058850916 -0.003751345 0.00095882 -0.0071710804 -0.007889527 -0.0031538487 -0.001874365 0.0045809234 -0.00713631 0.0035029468 -0.0074937507 0.006027518 -0.003556783 -0.0061224154 -0.0078015737 0.004371321 -0.00022157916 0.0030488684 -0.0056558736 0.007759353 0.0038870566 0.000381155 0.009877678 0.0066983295 -0.008341265 0.0019364739 -0.0053010476 -0.00076753146 -0.0064574564 0.0005042828 -0.002195017 -0.010392649 0.009301308 -0.0041412204 -0.0036236634 -0.00422547 0.0023273563 0.0048975796 0.012846237 0.002653757 -0.0053759124 0.0019141319 0.0030561157 0.0034708737 -0.010640195 -0.00239664 0.00017278091 -0.0015261032 0.002918608 -0.008612288 0.012877146 0.0001997625 -0.006833369 -0.004626249 -0.00051544805 0.002803857 -0.0027105846 -0.0053293207 0.00072800345 2.8040115e-05 -0.006476344 0.0050599854 -0.0022219764 -0.00284023 0.008642943 -0.00034567615 0.0042639356 -0.005073462 -0.0049233558 -0.0017122224 -0.001141604 -0.0031181383 -0.008286765 -0.0013116146 0.008268037 -0.00015310623 0.0018876676 -0.0018025702 0.0033629641 0.003159448
صراط 0.05188879 -0.016807793 0.06961355 0.045864787 -0.063558124 0.020600056 -0.070572026 -0.041224346 -0.056418445 -0.015107163 -0.04171961 0.046608187 -0.0037134914 -0.101217285 -8.742674e-05 0.039157417 0.12115689 -0.004152589 -0.109108776 -0.10829384 0.08219467 0.008918259 0.022421874 -0.11958345 -0.046279162 -0.006496763 0.041198947 0.04917249 -0.13162598 0.07894251 -0.050928332 0.03184916 -0.054745458 -0.08399008 -0.044206075 0.041362442 0.028854586 0.010051672 -0.12386502 0.09016501 0.011611474 0.045246854 0.075528726 0.077514015 -0.047286484 0.05067826 -0.116479725 -0.06638029 -0.04093159 0.041840907 -0.06767466 -0.08908921 0.06569768 -0.09000271 -0.1191129 -0.026496138 0.057085402 0.019835813 0.13400567 0.028514888 -0.02640571 0.038418338 0.08071923 0.04990132 -0.08079996 0.008777037 -0.02680694 -0.061706856 0.09795973 -0.061621975 0.11214469 0.019271662 -0.025682298 -0.12523204 0.050484434 0.05394416 -0.0925974 -0.031571005 -0.0285315 0.020998633 -0.07926158 0.050724275 -0.024195436 -0.009047992 0.08903449 -0.0022847173 -0.0009782878 -0.03510002 -0.041620314 -0.08103237 0.012786891 -0.039397646 -0.04970959 -0.00765453 0.07212747 -0.03774588 0.05386232 -0.032508176 0.019962804 -0.016204512
أنعمت 0.025507264 -0.002816422 0.028932776 0.024113614 -0.026200496 0.012869177 -0.03240837 -0.025377203 -0.020085221 -0.0068300525 -0.02281479 0.019521913 0.00055715453 -0.04739296 0.0022220586 0.016872544 0.056506366 0.0016693326 -0.052399553 -0.044488743 0.034954727 0.0016224982 0.00918318 -0.049600262 -0.0196108 0.001017178 0.017913107 0.02679772 -0.060756072 0.03321492 -0.024863504 0.011731932 -0.016929038 -0.034809146 -0.024542736 0.019224305 0.010154922 -0.0006922257 -0.050222516 0.043107696 0.0073212795 0.02522662 0.032819655 0.03149842 -0.023503399 0.020984408 -0.05096861 -0.03509908 -0.01501238 0.01688996 -0.029522512 -0.037879452 0.03309608 -0.041095704 -0.056345873 -0.0056006783 0.020913992 0.008723999 0.059517913 0.010679467 -0.009797619 0.014994474 0.033732627 0.01667361 -0.031002108 0.0059905136 -0.010332996 -0.026593432 0.046408173 -0.026830532 0.04962916 0.012283125 -0.013406317 -0.055837166 0.021347092 0.020961883 -0.035813972 -0.012507893 -0.008597793 0.012143957 -0.03790891 0.018214295 -0.0070734513 -0.0037254216 0.040071912 -0.00291818 -0.0012384176 -0.014147213 -0.0206079 -0.0318531 0.009765739 -0.014367084 -0.019035647 0.003185543 0.03457649 -0.02060189 0.018836983 -0.015156772 0.011755528 -0.0075817783
عليهم 0.17959313 -0.03879853 0.23689088 0.17083418 -0.24478547 0.084086575 -0.25026697 -0.17073041 -0.19173992 -0.037848767 -0.14219224 0.14727977 -0.024513328 -0.36277118 0.0073808315 0.16401367 0.42918155 0.006867134 -0.398189 -0.37156427 0.3024585 0.050930336 0.09707266 -0.41913736 -0.17030767 -0.025516419 0.13562092 0.1966191 -0.45938465 0.28427362 -0.19982575 0.11987432 -0.17132927 -0.3146081 -0.18449844 0.15793309 0.105560556 0.025726356 -0.43798244 0.3324828 0.041589785 0.15509255 0.24783695 0.28167766 -0.19163266 0.1910536 -0.43075952 -0.25195336 -0.13791347 0.13559754 -0.24167989 -0.336531 0.22633196 -0.33699155 -0.42356908 -0.07020964 0.18328637 0.048923556 0.48627394 0.117188334 -0.097603865 0.14549038 0.2913739 0.18273428 -0.28518334 0.019039277 -0.07702365 -0.20612517 0.37258825 -0.21355647 0.4216248 0.074953854 -0.090191655 -0.44843075 0.18480201 0.20288463 -0.32808235 -0.09997658 -0.08750364 0.0746558 -0.2835362 0.17116502 -0.071954824 -0.03200466 0.32335347 -0.0076648444 -0.0036630074 -0.12796876 -0.14121686 -0.29798293 0.046557758 -0.12707561 -0.17512308 -0.016250914 0.26890853 -0.14027195 0.19055974 -0.11929619 0.07369377 -0.057011627
الضالين 0.010206483 0.0015461373 0.0068104966 0.009458421 -0.003929888 0.0008046678 -0.0070736827 -0.00888065 -0.007315264 -0.001708294 -0.007848092 0.004580602 -0.0014674286 -0.007998783 -0.0034323197 0.009449421 0.019552216 0.0038209932 -0.009312735 -0.015979925 0.014621047 0.00012915256 0.00467493 -0.010817597 -0.009438501 -0.0052845995 0.0028701895 0.010517256 -0.019410029 0.005919107 -0.010011325 0.0006170657 -0.004919706 -0.010989955 -0.008733407 0.008105379 0.007960189 -0.0020214492 -0.018249245 0.0142617375 -0.003376125 0.008849476 0.012332119 0.008210584 -0.008707514 0.0029841359 -0.01449576 -0.0063996874 -0.0071975496 0.0028419732 -0.009826949 -0.011315081 0.012809373 -0.010009042 -0.015493656 0.0014282292 0.0070172586 0.005276574 0.021610266 0.008783639 6.0136663e-05 0.010186263 0.0066218195 0.008249089 -0.007231363 -0.0010428126 0.0014215563 -0.008109808 0.015256341 -0.010423536 0.011605459 0.0028795353 -0.0067804796 -0.016723031 0.0036898395 0.0015168735 -0.007592544 -0.00024874415 -0.005363943 -0.0017703634 -0.010945892 0.0035182354 -0.004638653 -0.0026585904 0.011745428 -0.0033932235 -0.0027906622 -0.0049107103 -0.0073372405 -0.014697159 0.004163582 -0.0002115313 -0.0049500708 0.004154821 0.010133999 -0.009977786 0.0057733664 -0.0026007202 0.0008909515 -0.003781503
بسم 0.28551227 -0.14290482 0.4646997 0.28645596 -0.30525473 0.1797 -0.3204118 -0.23316352 -0.2715791 -0.12037931 -0.22006907 0.3102938 0.022212502 -0.27488983 -0.1603114 0.06372534 0.5752329 -0.11262826 -0.50123733 -0.517986 0.4640443 -0.033936337 0.015341347 -0.5061365 -0.29606387 -0.020956846 0.16471514 0.13578248 -0.71605355 0.3891953 -0.22790179 0.19712995 -0.3546316 -0.35774243 -0.17342974 0.16938262 0.29473853 0.016629651 -0.53421915 0.3849713 0.026707089 0.3047697 0.4034345 0.24252792 -0.15176637 0.27868393 -0.5911968 -0.2694627 -0.15566045 0.22528212 -0.36788175 -0.4434445 0.34012958 -0.45512736 -0.45460108 -0.1384705 0.31637207 0.09450214 0.6857021 0.10955407 -0.1534261 0.26277596 0.4911793 0.144509 -0.46760836 -0.032196224 -0.09048481 -0.28270143 0.510494 -0.29342037 0.52086186 0.107819445 -0.24527301 -0.61202234 0.227458 0.09086104 -0.52605504 -0.13613543 -0.13183072 0.16495258 -0.34329927 0.22294445 -0.108521596 -0.011204295 0.48439914 0.0679105 -0.007756358 -0.15059736 -0.14111376 -0.45233697 0.019624403 -0.29642308 -0.3495631 -0.054781266 0.3636944 -0.24830292 0.36994866 -0.02704622 0.004663429 -0.10380287
الم 0.01564771 0.0009343822 0.015436727 0.013757142 -0.012056405 0.009478514 -0.014790252 -0.009664999 -0.007455802 0.0007639806 -0.012359854 0.0075936834 -0.0031269938 -0.024819767 -0.0057757874 0.0130562065 0.02689923 0.0011477998 -0.023236217 -0.024117194 0.023965852 0.005718182 0.006465325 -0.030014295 -0.012561681 0.0029630905 0.0047137276 0.011645904 -0.0295021 0.01795445 -0.01646245 0.004176818 -0.008065219 -0.023651013 -0.007637551 0.013599153 0.009886726 0.00069801946 -0.029827747 0.015410462 0.0062560886 0.0120774815 0.018861014 0.019597584 -0.012069954 0.014689824 -0.03105147 -0.01598652 -0.005667916 0.01135761 -0.017055193 -0.025571475 0.015607014 -0.020669887 -0.021838158 -0.001836298 0.007806763 0.0019934513 0.031516813 0.010932343 -0.010984174 0.00974455 0.020737829 0.010166753 -0.019953616 0.0045286715 5.8256905e-05 -0.015185781 0.023310464 -0.011525369 0.022373872 0.0038484447 -0.0035345354 -0.027140345 0.007963065 0.0074695954 -0.016657457 -0.0058140666 -0.0073865876 0.00481522 -0.016838454 0.015738273 -0.0064543663 -0.0016972994 0.02208396 0.0019868973 -0.00056019146 -0.0043249386 -0.011615087 -0.016302373 0.0072483183 -0.013125922 -0.009803709 -0.00073511613 0.021630734 -0.010004544 0.014858879 -0.009314212 0.0061885864 -0.007885974
الكتاب 0.1612504 -0.032667875 0.19786866 0.1474172 -0.21921016 0.075330436 -0.21697502 -0.136344 -0.16451976 -0.021563912 -0.13019367 0.120840766 -0.018217163 -0.3253619 0.0048590447 0.14340812 0.37640372 0.013070742 -0.33440074 -0.3228068 0.25213805 0.04714443 0.09244556 -0.36201593 -0.14929307 -0.028256843 0.11843115 0.17417872 -0.38581073 0.24209397 -0.16744772 0.10515721 -0.15172975 -0.27110586 -0.15247591 0.13603702 0.08637484 0.0125507675 -0.37500393 0.2873446 0.034677524 0.12831661 0.20860888 0.2502659 -0.16799068 0.16385593 -0.3657784 -0.21952093 -0.12111117 0.11267731 -0.21331361 -0.28511968 0.19154611 -0.28024635 -0.36039793 -0.06333029 0.15838158 0.04347996 0.41104695 0.1064489 -0.08143095 0.11587554 0.25227326 0.15891264 -0.24586609 0.012473442 -0.07609377 -0.18336354 0.31929624 -0.18231827 0.36910892 0.06001808 -0.07945657 -0.37749815 0.16145195 0.17880401 -0.2826423 -0.079965964 -0.070619166 0.06279484 -0.24345908 0.15355812 -0.060086444 -0.029410396 0.27924615 -0.01024752 -0.00679586 -0.113342255 -0.1244725 -0.25606927 0.04749466 -0.10487362 -0.1527146 -0.00606742 0.23740664 -0.12429049 0.16311389 -0.10986191 0.067321405 -0.0530771
ريب 0.04297221 -0.0070432858 0.05508845 0.041414663 -0.059393995 0.017045934 -0.06086063 -0.03656452 -0.044685815 -0.00998372 -0.037905797 0.03934233 -0.004937893 -0.0810239 -0.0052045034 0.039035276 0.10214949 0.001456032 -0.097503796 -0.088451214 0.072083145 0.0060719964 0.019697206 -0.09933799 -0.045983553 -0.010730758 0.026804712 0.04920372 -0.114947766 0.06810545 -0.043551233 0.023628397 -0.040231336 -0.0747257 -0.042749956 0.03423941 0.03281012 0.0050174207 -0.10253443 0.08322288 0.0147858765 0.043983586 0.0612561 0.06326104 -0.041408565 0.042811062 -0.09918297 -0.05990164 -0.037366558 0.030768393 -0.059808657 -0.08171977 0.055112317 -0.07988324 -0.098182544 -0.022389987 0.049299855 0.015806507 0.11958558 0.02267052 -0.026726898 0.039479792 0.06805108 0.04153471 -0.06961201 0.0004065429 -0.021454006 -0.049936216 0.083539926 -0.052123137 0.10319487 0.020423904 -0.020657457 -0.103272125 0.047565162 0.04074731 -0.081880346 -0.024163578 -0.025121389 0.017816143 -0.06396423 0.035473574 -0.019470338 -0.009390005 0.07858684 -0.002252256 -0.0037602081 -0.029170742 -0.038208447 -0.068127416 0.013169218 -0.032111146 -0.04428941 0.00042403134 0.06889039 -0.038936075 0.048920855 -0.030471364 0.013880562 -0.011737108
هدى 0.06947818 -0.013119432 0.090974815 0.064430416 -0.086943485 0.028233813 -0.08605039 -0.05346853 -0.06550038 -0.02081393 -0.055717863 0.05870414 -0.0102848215 -0.11349317 -0.008160398 0.046212815 0.1515302 0.0021252602 -0.13959326 -0.12720644 0.10870703 0.0089007495 0.03258927 -0.14340053 -0.06229975 -0.013917795 0.04898633 0.06307622 -0.16814063 0.09912223 -0.06757361 0.044373374 -0.06287062 -0.10306022 -0.059073836 0.04844131 0.04142249 0.011729833 -0.15099984 0.11657549 0.015653774 0.05919318 0.08926359 0.08683394 -0.06620138 0.07136429 -0.14693432 -0.088688344 -0.04692629 0.047980115 -0.08651234 -0.11749012 0.08386994 -0.12057644 -0.14289916 -0.025917772 0.066236615 0.015889017 0.17379789 0.03393621 -0.039574716 0.05008144 0.10288658 0.06178411 -0.09999433 0.00089849194 -0.030277476 -0.06788499 0.1268173 -0.076719254 0.14586534 0.026422279 -0.037131418 -0.15427706 0.05833503 0.061650313 -0.11829435 -0.032775916 -0.027081084 0.023905814 -0.10155362 0.06359968 -0.021188231 -0.01109831 0.116741754 -0.0031286078 -0.003319546 -0.041291732 -0.044047788 -0.10907195 0.012074039 -0.046522796 -0.06860329 -0.001944274 0.09242229 -0.056403745 0.076036535 -0.033664804 0.018174037 -0.02535938
للمتقين 0.021510955 -0.008420945 0.036926877 0.019922586 -0.03534201 0.008068837 -0.033849217 -0.027086524 -0.02332647 -0.010237192 -0.016503574 0.022776034 -0.007315698 -0.052890714 -0.004991743 0.019394368 0.057583053 -0.0005540447 -0.059660792 -0.055134997 0.04043766 0.004480336 0.011049861 -0.054762032 -0.02895386 -0.008633914 0.01833121 0.021888837 -0.064542525 0.042098884 -0.02815827 0.016777698 -0.026617622 -0.046038248 -0.023893954 0.025042286 0.013224781 0.0012318939 -0.056072645 0.051007498 0.0032234688 0.019271582 0.032159876 0.041287623 -0.026879955 0.030557292 -0.06511677 -0.031840578 -0.022694854 0.016872283 -0.03567472 -0.048294555 0.035867833 -0.04874486 -0.062028434 -0.006516646 0.029592058 0.0035145911 0.06630633 0.014457463 -0.012570641 0.024704073 0.038003992 0.025729515 -0.045734607 0.0010909898 -0.010419249 -0.030149803 0.047159255 -0.033515867 0.05575599 0.013776535 -0.01568285 -0.060376268 0.025349585 0.030313898 -0.04537366 -0.01293554 -0.00987023 0.009852389 -0.03968363 0.01930923 -0.0076728496 0.00025063902 0.042648435 -0.0010380694 0.0031608467 -0.018561034 -0.018953817 -0.043591402 0.003635124 -0.021271111 -0.026183808 4.913454e-05 0.04113211 -0.016101886 0.028917221 -0.012402505 0.007067415 -0.00625508
يؤمنون 0.112567894 -0.02241739 0.14621015 0.09993607 -0.13983327 0.054486983 -0.14946365 -0.10005332 -0.11741797 -0.026998544 -0.08398477 0.09136598 -0.010084228 -0.20316674 -0.002872411 0.089731865 0.25010616 -0.0005112549 -0.22845018 -0.21997553 0.18263946 0.02667039 0.06030666 -0.24056216 -0.103820555 -0.012872873 0.079271145 0.11293867 -0.26870883 0.16614956 -0.11215644 0.06661252 -0.1103475 -0.18662025 -0.10826821 0.090261735 0.06438759 0.012231113 -0.2606986 0.19953151 0.022297988 0.09616297 0.15420116 0.15855089 -0.1115681 0.11726368 -0.2593892 -0.14465827 -0.07907387 0.07849549 -0.1428476 -0.20340921 0.13097562 -0.20140584 -0.24616422 -0.045700066 0.11139365 0.034952205 0.28379923 0.06977359 -0.061359394 0.085935175 0.17557183 0.09678322 -0.17004816 0.004700673 -0.04650836 -0.12623473 0.218416 -0.13010705 0.2466851 0.04437615 -0.06240511 -0.2651848 0.10387279 0.11618425 -0.19115199 -0.061607756 -0.055009957 0.047756255 -0.17115277 0.09600195 -0.039289054 -0.014011344 0.18710908 -0.00036394977 -0.005733219 -0.07269616 -0.083522476 -0.18033329 0.031187804 -0.08405507 -0.10854688 -0.011827391 0.16262776 -0.0808865 0.12123962 -0.062161893 0.040293515 -0.041007165
بالغيب 0.047455266 -0.015899427 0.06427075 0.04329458 -0.06326866 0.020638464 -0.06103343 -0.04677462 -0.044566352 -0.0069472673 -0.03397907 0.046097968 -0.006861805 -0.078863926 -0.009806063 0.038407534 0.11359153 -0.0068660975 -0.09971819 -0.09676273 0.0802972 0.010597082 0.022913994 -0.10217909 -0.041749522 -0.0036532478 0.033948902 0.04348203 -0.118053205 0.077424355 -0.04999287 0.033844236 -0.047503244 -0.078319505 -0.042705312 0.034435287 0.03320345 0.00472365 -0.10589644 0.082004845 0.014132142 0.040890794 0.06817669 0.06589092 -0.042105936 0.054391276 -0.113695905 -0.06589567 -0.038451493 0.035980787 -0.061233558 -0.07988217 0.055004746 -0.086127646 -0.09717191 -0.017790457 0.046062756 0.010398448 0.12299419 0.023085952 -0.027337186 0.03848407 0.079680115 0.045607995 -0.078662485 0.0028180508 -0.021918675 -0.05165481 0.09379196 -0.054670148 0.10738666 0.016636452 -0.031780258 -0.113087796 0.04396048 0.04857874 -0.083273925 -0.026700515 -0.018384973 0.023420924 -0.07194301 0.047190554 -0.015025121 -0.010596188 0.08338881 -0.001079216 0.0005657658 -0.02983148 -0.030864503 -0.07327461 0.013243546 -0.040559344 -0.04993679 -0.0066020484 0.06680102 -0.035891905 0.05191206 -0.027921207 0.01579009 -0.01924805
الصلاة 0.10562064 -0.028870806 0.14159596 0.09660066 -0.13947384 0.050736535 -0.14547518 -0.09947962 -0.11456018 -0.021724958 -0.08410235 0.09365831 -0.0058399932 -0.19800891 -0.0028080575 0.08255626 0.24921748 -0.0013816234 -0.22085479 -0.22122557 0.17775832 0.026831992 0.051923323 -0.2382235 -0.10583413 -0.018839061 0.07649519 0.10215371 -0.26439425 0.16080603 -0.11438443 0.06929242 -0.105244406 -0.17901081 -0.10438001 0.091088034 0.0766503 0.006351622 -0.25095814 0.18719706 0.018703405 0.099245265 0.14750303 0.14848173 -0.10604567 0.11695659 -0.2498356 -0.13982847 -0.08027651 0.0850357 -0.14353666 -0.19191077 0.12907237 -0.18728389 -0.229848 -0.046930585 0.11259262 0.027713906 0.276864 0.067022316 -0.060492482 0.08477464 0.1727958 0.09993583 -0.17546658 0.012609536 -0.0403382 -0.12677461 0.21556944 -0.12192904 0.2398914 0.044729568 -0.062650934 -0.25047183 0.101033136 0.10950454 -0.195538 -0.058691178 -0.047934726 0.04733268 -0.15866138 0.09314328 -0.03934157 -0.019192018 0.18998542 -0.005730505 -0.0059675477 -0.06709635 -0.083590575 -0.17760795 0.023307186 -0.080433376 -0.107375 -0.0045190514 0.15451773 -0.081891485 0.11280154 -0.055452313 0.03629711 -0.03831905
ومما 0.033366524 -0.00550534 0.05318556 0.031092884 -0.04674303 0.023885246 -0.045493774 -0.0343888 -0.04265768 -0.014211911 -0.032164752 0.03681068 -0.007585382 -0.06488291 -0.006275013 0.022114689 0.08796001 -0.0056346543 -0.0762167 -0.07161506 0.06148862 0.010136349 0.014715016 -0.08011807 -0.03374593 -0.003248469 0.029619467 0.031913325 -0.0883712 0.051492684 -0.033295464 0.023783004 -0.04101695 -0.057193168 -0.033137124 0.03185305 0.025009058 -0.0005262419 -0.08416468 0.067132145 0.004853325 0.039076127 0.050172232 0.05041231 -0.036413096 0.042614214 -0.08040104 -0.047695804 -0.031083984 0.031083398 -0.046094872 -0.06454554 0.041912183 -0.07009789 -0.07576074 -0.01834736 0.036316574 0.0107932165 0.096063524 0.024710828 -0.022082604 0.025924437 0.059568092 0.026801992 -0.055530276 -0.0022140434 -0.015620673 -0.03999118 0.07482295 -0.04091399 0.0820734 0.015314764 -0.019750388 -0.08175917 0.035512246 0.03701742 -0.06588676 -0.015935317 -0.01747874 0.019612182 -0.05140634 0.029171783 -0.010315222 -0.0005845776 0.06191699 -0.00066296454 0.00026586337 -0.024498222 -0.029686619 -0.05743352 0.012390366 -0.032686565 -0.03533879 -0.005402037 0.05752122 -0.03015101 0.04478589 -0.014884272 0.014880376 -0.016046247
رزقناهم 0.026159674 -0.004843857 0.028262287 0.021629853 -0.034051914 0.007440835 -0.030777583 -0.023206476 -0.02699374 -0.00526663 -0.014548036 0.021783527 0.0010486745 -0.047921117 -0.0015144818 0.024947073 0.05024486 -0.00061735255 -0.050095055 -0.04359737 0.039806213 0.004589997 0.012257331 -0.049615458 -0.02264504 -0.005751388 0.01329708 0.03056009 -0.058195386 0.031315554 -0.026721537 0.014612892 -0.02435912 -0.04109258 -0.018994188 0.02160063 0.015806824 0.0013331561 -0.05793526 0.04591849 0.007767786 0.017156305 0.033734914 0.036864355 -0.02559166 0.024466755 -0.054273695 -0.037273493 -0.014803963 0.0153028965 -0.033101898 -0.042244747 0.024422182 -0.040013716 -0.050152984 -0.0066445256 0.026762417 0.0038965007 0.058382884 0.016683768 -0.01406224 0.018975701 0.032749247 0.026352903 -0.03710819 0.0040051015 -0.0059459573 -0.029987566 0.04815246 -0.023668842 0.0562749 0.008468651 -0.008456832 -0.05255682 0.020846616 0.03207067 -0.04066049 -0.013556114 -0.012244118 0.005450854 -0.032074854 0.018296286 -0.003699077 0.00046611042 0.039088197 -0.0028457637 -0.0015412875 -0.020447941 -0.023333041 -0.035766903 0.0055866474 -0.01203453 -0.019916004 -0.0008410602 0.038033545 -0.014649406 0.024505235 -0.021287091 0.006897664 -0.008970769
ينفقون 0.020301936 -0.0009731991 0.025193173 0.017196978 -0.027048785 0.0136562595 -0.02981696 -0.020572908 -0.016216848 -0.0036484175 -0.019119538 0.020044249 0.0015303554 -0.034985915 0.0017515139 0.016550228 0.050105564 0.0051622945 -0.04301016 -0.042207032 0.033662226 0.009846067 0.011932852 -0.04226867 -0.019964565 -0.006911391 0.013619347 0.019992407 -0.047309577 0.033378746 -0.020691909 0.014434273 -0.018821277 -0.03534272 -0.017879713 0.01982782 0.008763791 0.00034797788 -0.043503836 0.040306475 0.00037641125 0.017409928 0.025918044 0.0263441 -0.019979801 0.025053732 -0.04998704 -0.030008428 -0.01935441 0.013627672 -0.021218456 -0.03214149 0.023205206 -0.031449154 -0.048095554 -0.009305687 0.021792235 0.006834338 0.048827432 0.015643978 -0.012910665 0.01617872 0.03402687 0.01529358 -0.03211362 0.0028372142 -0.0044301935 -0.024658442 0.03820885 -0.018974114 0.041655377 0.007119272 -0.008648738 -0.0431682 0.024330825 0.018081533 -0.030668257 -0.01511727 -0.004018801 0.007844533 -0.03394719 0.022965753 -0.0059772306 0.001951717 0.038277254 0.0019418381 0.0026454404 -0.017327331 -0.018509734 -0.03564742 0.009700243 -0.018197715 -0.017077338 0.0025514 0.031170093 -0.011139333 0.016107073 -0.016197534 0.007062087 -0.008274961
أنزل 0.122298755 -0.03575968 0.17145154 0.113781184 -0.15733415 0.06313591 -0.16772915 -0.11022682 -0.123813674 -0.03333029 -0.10220032 0.109253116 -0.011548321 -0.21523425 -0.014630532 0.08714233 0.28096306 -0.012081801 -0.25064 -0.24806917 0.20201755 0.025242668 0.055519786 -0.27376166 -0.12378413 -0.02100886 0.088345304 0.118062474 -0.31645456 0.19246571 -0.12484743 0.07772082 -0.12852548 -0.20425996 -0.108284906 0.09720134 0.08989659 0.018145772 -0.28280792 0.2143338 0.02238364 0.11355396 0.17957646 0.17298402 -0.116873674 0.1261811 -0.28760102 -0.16422832 -0.08949016 0.09623633 -0.16394189 -0.21782137 0.14986531 -0.22516896 -0.26054987 -0.05294673 0.12992407 0.036016706 0.3284946 0.07626787 -0.06984815 0.10779376 0.2022138 0.1060615 -0.20318192 0.008033215 -0.047980264 -0.14082831 0.24118643 -0.14290072 0.27889252 0.047947057 -0.07219205 -0.29463 0.11752903 0.10795265 -0.22619897 -0.06761827 -0.062920794 0.057702754 -0.18538901 0.11506078 -0.046832994 -0.018355582 0.21480076 0.0012886872 -0.004711038 -0.078796186 -0.08459636 -0.20285964 0.02456898 -0.10215129 -0.13084163 -0.010320086 0.18232134 -0.098197885 0.13987865 -0.06413887 0.04060955 -0.04748001
قبلك 0.08405764 -0.017505502 0.11369809 0.07608959 -0.10588885 0.04032564 -0.11665501 -0.07691667 -0.083295554 -0.012235681 -0.07039961 0.069889426 -0.008389675 -0.14981666 -0.002912166 0.06922992 0.18999453 0.0004504423 -0.1780871 -0.16200583 0.13640478 0.022267386 0.03752591 -0.18363687 -0.082293496 -0.010150358 0.0598538 0.08162371 -0.20212533 0.12326351 -0.08973867 0.04809267 -0.08261099 -0.1391176 -0.07944032 0.0641376 0.054889113 0.012085058 -0.19301032 0.14267962 0.020470044 0.07119964 0.11763743 0.11562974 -0.085706115 0.083222434 -0.1878506 -0.108800806 -0.06007051 0.058364563 -0.10477145 -0.15378252 0.10172246 -0.14960648 -0.1828225 -0.029462587 0.084056295 0.028510839 0.21750864 0.053730853 -0.043818407 0.06949097 0.12914592 0.07919185 -0.1344331 0.010410398 -0.032011766 -0.096986346 0.16402663 -0.09398409 0.18147713 0.03391265 -0.042194854 -0.2011591 0.0782931 0.08704768 -0.14734614 -0.04802718 -0.035466816 0.038531456 -0.1303121 0.07852685 -0.02638842 -0.0077220984 0.1405041 -0.004074703 -0.004746708 -0.05593869 -0.06047182 -0.13093765 0.014662836 -0.06465316 -0.081423216 -0.0062827445 0.118350305 -0.06385408 0.09265396 -0.04991738 0.02888794 -0.025265282
يوقنون 0.027249876 -0.008140527 0.034650758 0.024170151 -0.031283278 0.011955918 -0.040311392 -0.023972174 -0.028454814 -0.0067071323 -0.017136551 0.021557504 -0.0031554282 -0.058808748 0.0016120786 0.02404552 0.06713636 0.0066500916 -0.061446317 -0.054617114 0.04584428 0.012137206 0.018572846 -0.06410949 -0.024822285 -0.0021180813 0.02379211 0.032395296 -0.06670826 0.041347638 -0.026619632 0.018657105 -0.025783248 -0.051347475 -0.023527406 0.0283352 0.013333834 0.008391354 -0.061326787 0.048726566 0.006624868 0.027040444 0.037837487 0.037617166 -0.026030228 0.026897283 -0.06289068 -0.034894075 -0.021216016 0.023611289 -0.039281785 -0.047202125 0.037387684 -0.053071402 -0.05980561 -0.010079841 0.027261157 0.0062681492 0.07303705 0.018572487 -0.010622046 0.018226346 0.044058673 0.025922844 -0.04018299 0.0063393707 -0.010545259 -0.026651366 0.05908935 -0.029156512 0.06517105 0.0060323854 -0.014782095 -0.065137394 0.031225996 0.02965866 -0.04543444 -0.013473187 -0.015120707 0.0156342 -0.043631196 0.026749006 -0.012984028 -0.00545904 0.046670996 0.00081924634 -0.003597922 -0.01797609 -0.023555564 -0.0465014 0.01054075 -0.017376408 -0.025678264 -0.0047030575 0.04051631 -0.017913809 0.032752614 -0.014603835 0.0074953404 -0.0069922893
ربهم 0.15098664 -0.03031603 0.20024762 0.13767546 -0.21214509 0.066792145 -0.2149661 -0.13887236 -0.1663981 -0.024273265 -0.12308425 0.12843962 -0.01893974 -0.31130275 0.012170617 0.14031312 0.36454767 0.016886164 -0.33450904 -0.3190909 0.25797224 0.04438421 0.0914051 -0.35126436 -0.14480948 -0.027086686 0.114735305 0.17351006 -0.38491127 0.24031639 -0.16907896 0.09783933 -0.14336258 -0.2729264 -0.15630119 0.13412128 0.084839195 0.016738214 -0.37533188 0.2882265 0.04258758 0.12858295 0.21352538 0.24622785 -0.16687417 0.16991238 -0.3696742 -0.21957843 -0.11934637 0.115750276 -0.20646337 -0.28961584 0.18515377 -0.28862157 -0.35482422 -0.06404795 0.15900078 0.04182227 0.40576357 0.102312 -0.085515 0.11407384 0.25205314 0.14846464 -0.2388181 0.02205037 -0.07005739 -0.18235493 0.3097398 -0.17580546 0.35804015 0.063663535 -0.08101497 -0.3718626 0.15035173 0.17787495 -0.27119818 -0.0803203 -0.073962 0.061539717 -0.24694002 0.14455633 -0.052182287 -0.03023669 0.26818898 -0.013182024 -0.004575677 -0.11498261 -0.12810881 -0.25074226 0.04323601 -0.108575046 -0.14653188 -0.004403066 0.22928172 -0.11165203 0.15510309 -0.100541204 0.056604806 -0.053735044
وأولئك 0.03919947 -0.008411886 0.04678984 0.030203393 -0.045284793 0.02100127 -0.042875405 -0.032899197 -0.03899264 -0.007351856 -0.029179834 0.03365048 -0.001344197 -0.057473354 -0.0036681867 0.024978928 0.08244491 -0.0019267548 -0.07565074 -0.06674104 0.059461974 0.008603143 0.014848556 -0.07137486 -0.03146603 -0.0013144482 0.028583443 0.027900197 -0.09359313 0.04973907 -0.034308378 0.01927116 -0.03355125 -0.060398508 -0.026279133 0.0294024 0.029649207 0.0016744968 -0.075342566 0.060863864 0.0063451026 0.034871377 0.04965255 0.05174214 -0.03629753 0.035708614 -0.075971566 -0.045932826 -0.025795236 0.028259628 -0.048286784 -0.064586714 0.042304635 -0.0635904 -0.07166638 -0.02005488 0.035442382 0.010034521 0.09679591 0.020294596 -0.014143601 0.026284698 0.06298123 0.02838594 -0.058883056 0.00079010765 -0.01753486 -0.035109594 0.07211915 -0.039056733 0.08199982 0.014469363 -0.025514372 -0.082408674 0.02972899 0.032376997 -0.06616914 -0.021125222 -0.017063562 0.012185466 -0.0547248 0.028496064 -0.012926955 -0.007872071 0.060615767 -0.0022985488 0.002010257 -0.019454787 -0.029373055 -0.053361993 0.007126093 -0.027207453 -0.03936687 -0.004904717 0.051260516 -0.028820163 0.03499584 -0.013522678 0.011529162 -0.010451687
المفلحون 0.030102173 -0.005169614 0.037475854 0.026659839 -0.03991316 0.019006783 -0.032775655 -0.024119826 -0.028037975 -0.0062206704 -0.020347115 0.029097686 0.0028802962 -0.045558438 -0.0022966121 0.016599314 0.065710835 -0.004134619 -0.05406081 -0.056461 0.049804866 0.00446212 0.013010993 -0.06049688 -0.02766862 6.6912617e-06 0.02321759 0.024462396 -0.07137815 0.04374303 -0.028922718 0.023549741 -0.03179637 -0.044398148 -0.023679523 0.017525084 0.025385078 -0.0019517109 -0.061082184 0.04677282 0.0021824883 0.028446794 0.041284706 0.03459605 -0.029238604 0.026657559 -0.06880123 -0.039210584 -0.02244535 0.023232715 -0.035983194 -0.05417552 0.03366092 -0.051995706 -0.05693959 -0.016047085 0.03370425 0.010094373 0.06928292 0.014661535 -0.013647782 0.023638373 0.04636374 0.024392588 -0.04638927 -0.00018978992 -0.0075521227 -0.027984899 0.057792366 -0.029480798 0.06051463 0.015426484 -0.016252587 -0.061676703 0.021936681 0.021888314 -0.04852515 -0.017921807 -0.009648549 0.017506901 -0.042026002 0.027861709 -0.012032095 0.0009720406 0.054578796 0.0010934259 -0.001599725 -0.020368118 -0.019122837 -0.050952543 0.0051159384 -0.0240143 -0.034596138 0.0016453001 0.040140368 -0.024214441 0.028614137 -0.00979684 0.0027771876 -0.012906328
كفروا 0.16471557 -0.024530478 0.20113184 0.15657052 -0.23853125 0.073542126 -0.24267723 -0.15270135 -0.17654611 -0.025567412 -0.13241327 0.12690277 -0.03165034 -0.3658287 0.026488477 0.16712734 0.40613613 0.024941165 -0.36783734 -0.35512263 0.27167836 0.06514356 0.10709803 -0.40214512 -0.15317571 -0.027407775 0.12267495 0.19779778 -0.41421753 0.26723564 -0.18706508 0.10193428 -0.15402108 -0.30431068 -0.17834274 0.15619686 0.08587181 0.024126856 -0.42039177 0.32786822 0.042119507 0.13747539 0.2335088 0.27907422 -0.1979909 0.18610798 -0.40271416 -0.25218463 -0.13499258 0.12446648 -0.22582565 -0.3169635 0.2057107 -0.30895862 -0.41396382 -0.061753154 0.16043387 0.0456218 0.45093453 0.12315052 -0.093579054 0.1251909 0.26780042 0.1716482 -0.26431865 0.026448283 -0.075985394 -0.19406767 0.3479222 -0.19238073 0.40500537 0.070037685 -0.07053222 -0.4191918 0.18076004 0.20767108 -0.29890168 -0.09306221 -0.07814923 0.057156786 -0.2726304 0.16568586 -0.060786985 -0.033200607 0.29691502 -0.013766691 0.0029858146 -0.12034368 -0.14283296 -0.2808011 0.054849762 -0.10697618 -0.15481071 -0.006590895 0.25091752 -0.12140252 0.15837497 -0.12259724 0.07553852 -0.053305775
سواء 0.04663995 -0.007384191 0.06047361 0.047626127 -0.071272194 0.026360463 -0.06765324 -0.045420364 -0.048904177 -0.012866572 -0.03560776 0.037783887 -0.0033231205 -0.09885184 0.0025682515 0.044083953 0.11665479 0.0031815562 -0.111432984 -0.10426375 0.0785884 0.017156854 0.024148267 -0.11956562 -0.049928885 -0.010074112 0.03573492 0.05717045 -0.12538365 0.080345236 -0.055863842 0.028564034 -0.04939423 -0.091878355 -0.05015822 0.045640584 0.029247435 0.009364814 -0.11616991 0.09290218 0.009365457 0.043315776 0.07178115 0.078348175 -0.05701297 0.05774819 -0.11914175 -0.07558745 -0.042959876 0.03657706 -0.071414836 -0.095907025 0.065117575 -0.09292888 -0.11153786 -0.017501272 0.047256105 0.010747207 0.12802507 0.031763446 -0.026856273 0.03869018 0.081174724 0.04965259 -0.07680793 0.009169962 -0.02164058 -0.05546246 0.10285546 -0.059575416 0.11590032 0.017425258 -0.02962303 -0.1226917 0.04810268 0.054322105 -0.09300882 -0.023337727 -0.02581262 0.017233958 -0.08002931 0.048483543 -0.014482813 -0.012031558 0.08815545 -0.0031763727 -0.0043427767 -0.03142905 -0.043596733 -0.07605504 0.015974972 -0.030226784 -0.048808135 -0.0019203629 0.07413385 -0.040316038 0.049766127 -0.030132223 0.02176264 -0.015659552
قلوبهم 0.13752471 -0.032716654 0.18724144 0.12715988 -0.16847336 0.06765805 -0.17442416 -0.118353926 -0.13658391 -0.028919112 -0.105792984 0.121257596 -0.012977584 -0.23080938 -0.010364996 0.100212656 0.3111022 -0.0059263823 -0.2759036 -0.26473108 0.22013007 0.024006102 0.061790064 -0.28790757 -0.13301115 -0.023061128 0.093748346 0.12983814 -0.33933485 0.19970785 -0.13327402 0.089680806 -0.14053655 -0.21760073 -0.122371435 0.10367927 0.096327625 0.017541949 -0.30672973 0.22857913 0.028083751 0.11941543 0.19026023 0.18970434 -0.1299979 0.136151 -0.30737153 -0.16991368 -0.10031869 0.10130602 -0.18128905 -0.2417712 0.16716208 -0.23569696 -0.28397423 -0.05823479 0.14175929 0.04198104 0.35056695 0.079221375 -0.072801925 0.111228645 0.21519725 0.11900484 -0.21233225 0.009915285 -0.05089869 -0.15407145 0.26120704 -0.14763068 0.29114732 0.052839056 -0.08143373 -0.31202328 0.13034387 0.123939514 -0.24188553 -0.07187324 -0.060414407 0.059954226 -0.19768965 0.11596304 -0.052520175 -0.018547352 0.23675993 -0.002070066 0.00033558533 -0.09023492 -0.10085051 -0.21450862 0.024856694 -0.101907 -0.13493866 -0.012300464 0.19555677 -0.101979814 0.14325233 -0.07156412 0.036384005 -0.047286022
وعلى 0.083468124 -0.026470061 0.123615876 0.084888965 -0.102148905 0.04059684 -0.10803831 -0.06764082 -0.083509214 -0.023754027 -0.065591596 0.076303735 -0.006317878 -0.13459113 -0.01285192 0.052536592 0.19056468 -0.011154909 -0.161305 -0.1620591 0.1335885 0.0061018933 0.030484693 -0.17154346 -0.08134497 -0.015144735 0.05901971 0.074175455 -0.20847388 0.12713692 -0.078822576 0.057621665 -0.091844074 -0.1316562 -0.07395093 0.06440452 0.059464276 0.0035815972 -0.18191281 0.13716695 0.010954884 0.0807882 0.121064804 0.10055164 -0.06942062 0.08954737 -0.18279028 -0.10144479 -0.054178398 0.06288044 -0.108365096 -0.14702554 0.1006262 -0.14464325 -0.1690375 -0.03810677 0.086088635 0.025698237 0.21387672 0.04514128 -0.04085238 0.06636387 0.13968238 0.06563818 -0.13341889 0.0056752614 -0.029704906 -0.09089191 0.16294381 -0.08861103 0.17600256 0.028824821 -0.05919312 -0.19602367 0.07195594 0.06721765 -0.15099913 -0.046077468 -0.039166834 0.03879479 -0.11353429 0.068728305 -0.034320835 -0.01206014 0.14341278 0.0055047506 -0.0028582949 -0.056151498 -0.0498077 -0.13117075 0.012111221 -0.06586043 -0.089942165 -0.014025348 0.11706075 -0.07054873 0.10039112 -0.03978343 0.015769957 -0.02870891
أبصارهم 0.0327018 -0.01083877 0.049109425 0.030646939 -0.05197493 0.016580142 -0.049734466 -0.036993176 -0.034594983 -0.0051752045 -0.028163847 0.025880817 -0.0011048536 -0.06888463 0.00048503888 0.024615344 0.084937364 -0.0031813416 -0.07204634 -0.07422426 0.06015637 0.007926875 0.01920205 -0.08200203 -0.038041662 -0.0077680456 0.022559915 0.033986658 -0.09124708 0.056579605 -0.040750224 0.023848187 -0.030208772 -0.059664723 -0.038633794 0.029213525 0.019665316 0.0064812945 -0.0837012 0.06462005 0.010503561 0.029125867 0.04546922 0.054285105 -0.032138016 0.042573947 -0.07865024 -0.04789096 -0.022159819 0.025013873 -0.045545023 -0.06036842 0.04500016 -0.06795579 -0.07850187 -0.013461707 0.032831214 0.007825448 0.09501647 0.01995191 -0.024224915 0.028153175 0.053869545 0.034158327 -0.059693404 0.0027140833 -0.012377881 -0.036987286 0.07307988 -0.03538244 0.08556067 0.01003471 -0.01686429 -0.086970374 0.038348537 0.037376422 -0.06529127 -0.018386092 -0.012253083 0.011095949 -0.052277587 0.03666647 -0.009137143 -0.008165754 0.06331952 0.0016654212 0.0038377324 -0.020667514 -0.024349302 -0.055432864 0.007147563 -0.030780748 -0.031055547 -0.0045831953 0.055063836 -0.027284877 0.03552166 -0.017452657 0.008477397 -0.016043786
ولهم 0.083198994 -0.01893759 0.10567298 0.0754657 -0.11364246 0.036310855 -0.11626728 -0.07312507 -0.08904654 -0.012345699 -0.06621256 0.0656527 -0.012909224 -0.16754363 0.0128144445 0.07741228 0.19895247 0.0072148414 -0.1817935 -0.16821766 0.12841865 0.02981757 0.05364931 -0.19442432 -0.07729479 -0.017649401 0.06234033 0.09546325 -0.20519792 0.1274401 -0.08991791 0.055964205 -0.074699506 -0.14290813 -0.08895886 0.07389267 0.04350714 0.014009317 -0.19733447 0.158709 0.024561431 0.07275575 0.11471921 0.13055387 -0.08892872 0.08300029 -0.19480237 -0.11408518 -0.063866474 0.06233452 -0.11361271 -0.14854132 0.10543433 -0.15398006 -0.1967799 -0.03129888 0.07746542 0.023266073 0.21775256 0.056423023 -0.038719174 0.061172817 0.13175616 0.078861 -0.13178495 0.009086778 -0.035573374 -0.099315435 0.16550086 -0.090872966 0.19561088 0.036185876 -0.037311308 -0.19971852 0.082066916 0.10382324 -0.13900563 -0.049165845 -0.035776652 0.031292792 -0.12909275 0.07364217 -0.026036993 -0.012624015 0.14640066 -0.011017175 -4.8739865e-05 -0.056821935 -0.07094147 -0.13284561 0.02486903 -0.05620099 -0.072439805 -0.007344753 0.11882863 -0.060620755 0.08262822 -0.054331027 0.036344565 -0.023444278
عذاب 0.16670951 -0.046198603 0.22149818 0.14865522 -0.21576655 0.07976423 -0.22330856 -0.14963925 -0.16259849 -0.030984148 -0.13032013 0.14223443 -0.019473862 -0.3029701 -0.0070795184 0.12531497 0.3713114 0.0015104772 -0.3374731 -0.32376683 0.2626513 0.03715576 0.076441385 -0.357715 -0.15865605 -0.027233869 0.111567035 0.16726467 -0.4025205 0.25163087 -0.17201076 0.108780265 -0.15857035 -0.27423188 -0.15646422 0.13797265 0.108068675 0.021315308 -0.38124397 0.28794444 0.037214737 0.14766501 0.22881758 0.2312757 -0.1550935 0.17069179 -0.3755845 -0.21539478 -0.12171188 0.12158462 -0.2116044 -0.2891595 0.19765489 -0.29071862 -0.35599673 -0.06692711 0.17022932 0.043296188 0.42519695 0.104412846 -0.08629434 0.13480805 0.26313174 0.1501606 -0.26306698 0.010562954 -0.06251297 -0.18097225 0.31465727 -0.18417996 0.371485 0.070728764 -0.08800277 -0.39154887 0.1627743 0.15918504 -0.28442055 -0.08829209 -0.074793234 0.07070583 -0.24231413 0.14209953 -0.057596277 -0.02677471 0.28503138 0.0036149474 -0.0031866452 -0.11123728 -0.1236037 -0.2632779 0.03953141 -0.12117448 -0.16304153 -0.010303158 0.2329336 -0.12182107 0.17231256 -0.08760917 0.048645668 -0.052935213
عظيم 0.06740817 -0.020088999 0.0878565 0.057943936 -0.091234244 0.03283661 -0.09353979 -0.060495894 -0.06823738 -0.017346986 -0.05133581 0.05142544 -0.010928102 -0.124669656 -0.004910633 0.053520672 0.14878848 0.0067892508 -0.13294859 -0.13272578 0.10091386 0.017798353 0.031864062 -0.14430588 -0.05848958 -0.014924143 0.04237726 0.06566113 -0.16496255 0.096786 -0.066028364 0.045488372 -0.0636596 -0.11252758 -0.059965577 0.056616195 0.038297337 0.010975719 -0.1521652 0.11518198 0.017743554 0.05977275 0.093079224 0.09227969 -0.060006853 0.07023161 -0.15003857 -0.090892434 -0.052495997 0.053758137 -0.0866472 -0.114357255 0.083470024 -0.120467305 -0.1462401 -0.025950309 0.0646511 0.018911345 0.17535098 0.04489772 -0.037431337 0.046560653 0.10642079 0.06522584 -0.10318506 0.006399269 -0.024090694 -0.0774014 0.12724128 -0.07313818 0.14865209 0.030983964 -0.033682913 -0.1614968 0.05975657 0.06713059 -0.1189198 -0.038585 -0.030671459 0.02418994 -0.10160101 0.06356404 -0.02136791 -0.0108525995 0.114359744 0.0006756727 0.004464247 -0.047596443 -0.05319602 -0.10800723 0.011739304 -0.04617596 -0.06136816 -0.0013695136 0.09933197 -0.048093833 0.065488435 -0.042593766 0.026886951 -0.0230599
الناس 0.17601277 -0.045822054 0.23761675 0.16351447 -0.23544107 0.0888484 -0.2372614 -0.15624249 -0.19021918 -0.038896177 -0.14796504 0.15530626 -0.023113934 -0.3355221 -0.010328664 0.14000307 0.4196176 0.0002975289 -0.37733838 -0.36423516 0.2974623 0.038875684 0.09242215 -0.3953852 -0.1743626 -0.020995632 0.12538207 0.17574024 -0.45479053 0.27418688 -0.1807322 0.11856544 -0.17362219 -0.29428127 -0.16595922 0.14734964 0.1149675 0.019671988 -0.42026207 0.3157889 0.043304954 0.1581105 0.24383055 0.2545281 -0.18131103 0.19246796 -0.41325873 -0.24129885 -0.1363039 0.14070138 -0.23390247 -0.32221663 0.21852376 -0.32400632 -0.39990798 -0.07127617 0.1849678 0.049381085 0.47447795 0.11106222 -0.09197656 0.14229676 0.29249334 0.16368692 -0.28795862 0.015113777 -0.07400566 -0.20538859 0.35095835 -0.20218624 0.40413043 0.07641197 -0.10675313 -0.42639035 0.1765499 0.180891 -0.3254616 -0.09173635 -0.08074021 0.07955734 -0.27435133 0.16538285 -0.06785639 -0.02353288 0.31273863 0.00034594873 -0.004244478 -0.12810567 -0.13608669 -0.28500256 0.0383558 -0.1317266 -0.18235311 -0.01827672 0.26376578 -0.14409085 0.19634314 -0.106757335 0.058911175 -0.057847705
يقول 0.06497583 -0.010016975 0.086519815 0.057666462 -0.09238506 0.029434998 -0.089392446 -0.06373801 -0.06668938 -0.014251079 -0.054423984 0.054620422 -0.012859846 -0.13372564 0.0040049427 0.05735817 0.15720293 0.0020916972 -0.14374293 -0.13426673 0.10991394 0.016564745 0.039155837 -0.14602804 -0.05999197 -0.005872973 0.046957575 0.067079484 -0.1670806 0.10470716 -0.07296581 0.042676773 -0.063831955 -0.11660007 -0.06389864 0.056860227 0.04442584 0.0057307123 -0.15957063 0.12274405 0.017279642 0.059808638 0.08710788 0.09928195 -0.068006776 0.07087942 -0.15149203 -0.09225012 -0.05266947 0.051241104 -0.08530331 -0.12443017 0.077418804 -0.12057019 -0.15279348 -0.03078292 0.06312563 0.014584091 0.17802113 0.044957656 -0.03297024 0.047078066 0.10574166 0.058923658 -0.10633312 0.009330448 -0.028991826 -0.07840571 0.1324328 -0.08049674 0.15081467 0.0281353 -0.03927819 -0.15645802 0.062524065 0.06742905 -0.118245155 -0.037622325 -0.033600476 0.028920207 -0.10677995 0.06258907 -0.029041609 -0.009421884 0.11411408 -0.003373945 -0.00024590944 -0.048395265 -0.048788853 -0.102446966 0.012162683 -0.046933416 -0.06984551 -0.0007326245 0.09690102 -0.048071437 0.06803122 -0.04051414 0.025287712 -0.018582474
آمنا 0.07145893 -0.012516768 0.09273014 0.06429187 -0.09371291 0.028581118 -0.10462592 -0.06657286 -0.07296083 -0.01774254 -0.058319826 0.05435657 -0.012955804 -0.1450476 -0.0018929127 0.066326074 0.16723715 0.0069644107 -0.1500078 -0.14749697 0.11345236 0.025620585 0.036493935 -0.16957486 -0.07116742 -0.0064933067 0.048964266 0.08066333 -0.17505519 0.11593576 -0.07276394 0.0451293 -0.065866664 -0.1262685 -0.07710617 0.06128899 0.044005405 0.005766324 -0.17463832 0.13466762 0.018914528 0.0563854 0.09333464 0.115231894 -0.07472825 0.07679058 -0.16944036 -0.09866593 -0.053639475 0.05679873 -0.09559545 -0.13250545 0.0839411 -0.13286237 -0.17146106 -0.025388522 0.07421566 0.025189573 0.19396707 0.043378673 -0.04263883 0.05313976 0.114640564 0.07556046 -0.10843886 0.0059167603 -0.033652052 -0.083735645 0.14306253 -0.07932377 0.1703517 0.028365986 -0.04088174 -0.17106864 0.07512517 0.08024569 -0.12577327 -0.03664243 -0.03694968 0.033310194 -0.108609274 0.06489869 -0.024194736 -0.009742583 0.12951308 -0.006925226 -0.0043009147 -0.052398473 -0.05257419 -0.12031922 0.015498251 -0.051627524 -0.07027803 -0.0009131631 0.10642045 -0.056177504 0.07751056 -0.04679992 0.026118321 -0.02018688
بالله 0.16047743 -0.03161761 0.20005283 0.14147246 -0.20457707 0.073917486 -0.21962641 -0.14142844 -0.16968144 -0.021905456 -0.1226551 0.121327415 -0.02486231 -0.31392962 0.0024136915 0.14038162 0.36610898 0.017332405 -0.34081733 -0.32004273 0.26047388 0.046543352 0.08823721 -0.3620213 -0.15174627 -0.024236612 0.11397184 0.16568993 -0.39011827 0.24226469 -0.16874646 0.10375617 -0.14744939 -0.2757203 -0.16123472 0.13439356 0.09047822 0.020482527 -0.36916023 0.28994474 0.038865544 0.13449265 0.21309038 0.24490203 -0.17275117 0.17141278 -0.36680812 -0.22144833 -0.12414171 0.11853938 -0.207415 -0.28862563 0.19413006 -0.28641513 -0.3657072 -0.0662414 0.15469323 0.038931288 0.40848073 0.10456713 -0.0801765 0.120348364 0.24724776 0.150285 -0.24510357 0.011668329 -0.072358765 -0.18378673 0.31461495 -0.18160501 0.3645752 0.07041386 -0.081097536 -0.37312847 0.15173933 0.1784319 -0.27752352 -0.08653813 -0.06998112 0.059901096 -0.2460373 0.14741096 -0.06151053 -0.02808618 0.26866734 -0.0075765713 -0.0023928788 -0.11306544 -0.123010285 -0.256599 0.03717953 -0.11468495 -0.15052514 -0.012109559 0.22511649 -0.11964208 0.15799977 -0.10795543 0.060167376 -0.04957015
الآخر 0.059010457 -0.017181253 0.08820851 0.054786716 -0.06989379 0.030790597 -0.07220607 -0.05113187 -0.06371877 -0.016748397 -0.043298513 0.051474035 -0.007814502 -0.08791221 -0.014637383 0.033040967 0.12709099 -0.008208779 -0.11504731 -0.11695238 0.097023666 0.012396029 0.024122009 -0.12582076 -0.05817285 -0.011687092 0.039260734 0.05177384 -0.14040124 0.09003653 -0.05812522 0.036897056 -0.06589931 -0.096106835 -0.05284842 0.04701991 0.041621488 0.0075634397 -0.12522544 0.091357924 0.01152923 0.05748959 0.084271684 0.077454135 -0.046859212 0.06335188 -0.13239777 -0.07263489 -0.042259432 0.04275005 -0.07513091 -0.10234916 0.07597061 -0.105997026 -0.115962505 -0.030598441 0.05626472 0.02237218 0.14610213 0.03597563 -0.032584123 0.052014317 0.09203011 0.046547893 -0.08933873 0.006725489 -0.025966462 -0.061028536 0.11466446 -0.06356466 0.11977702 0.026527772 -0.038542625 -0.13732396 0.053474095 0.046040375 -0.1021598 -0.032975588 -0.024612624 0.021789495 -0.079390354 0.045198724 -0.025124222 -0.008671022 0.10594555 -0.00057094486 -0.0054382095 -0.03716525 -0.044079915 -0.09321952 0.012715291 -0.044128824 -0.062089935 -0.009575237 0.0786187 -0.04275049 0.065189414 -0.02927458 0.012410301 -0.025302084
بمؤمنين 0.00967086 -0.00633638 0.014730962 0.008478742 -0.014780839 0.0009978765 -0.013523692 -0.0044792406 -0.006430154 -0.007295235 -0.0042552864 0.012812987 0.0039698454 -0.018468374 -0.0036843044 0.009093813 0.024854202 -0.0008582084 -0.015756078 -0.017621435 0.019501824 0.003460712 0.0008006984 -0.018044217 -0.008387588 0.0008562854 0.0038803471 0.011589321 -0.02347662 0.00966358 -0.011518869 0.0057202615 -0.009155048 -0.012374904 -0.006138836 0.008792664 0.004469802 -0.00058591797 -0.01867582 0.012958209 -0.0021793565 0.008581055 0.015083661 0.015900228 -0.012596759 0.00919605 -0.01911747 -0.010807041 -0.002697432 0.00776905 -0.0072447606 -0.015139813 0.014147088 -0.017437745 -0.017946351 -0.0025060188 0.0089860745 0.004158031 0.017826099 0.0033040214 -0.0058383914 0.0039633033 0.016772341 0.011484153 -0.014892906 0.0037193664 0.0012456118 -0.008382918 0.018969756 -0.014111402 0.014664598 0.0024274401 -0.00226646 -0.019775333 0.007138526 0.008277496 -0.017073423 -0.0015184626 -0.008869063 0.0048054093 -0.016113276 0.0063261827 0.0013827825 -0.0039250897 0.019308012 -0.00090856146 -0.0011059098 -0.006513782 -0.007279745 -0.019132586 0.0055771107 -0.006121069 -0.008250554 -0.0008678796 0.016835216 -0.0037763205 0.013253374 -0.0065110177 0.0069723725 0.0013450211
آمنوا 0.19427676 -0.027229756 0.23854654 0.18072069 -0.277645 0.081372164 -0.26367778 -0.16816474 -0.21124442 -0.03174719 -0.15550517 0.16000652 -0.022057008 -0.40195164 0.018651903 0.18725166 0.45500636 0.015875421 -0.41656733 -0.40116486 0.321599 0.06613232 0.10509982 -0.44987977 -0.17047147 -0.031049894 0.1376343 0.21564694 -0.474719 0.30712867 -0.2196461 0.12427519 -0.17691755 -0.34869066 -0.1930293 0.17946427 0.11240713 0.029303435 -0.48020494 0.36949858 0.050520476 0.1514963 0.27775586 0.3205322 -0.22368571 0.2099421 -0.46653357 -0.2885161 -0.16180101 0.13189453 -0.26471838 -0.3665171 0.2314547 -0.3617431 -0.44739756 -0.068492524 0.19374885 0.059822284 0.51419973 0.12520507 -0.11145152 0.15206745 0.3168198 0.18691225 -0.29457232 0.031043325 -0.08798287 -0.21964416 0.39445144 -0.22914208 0.46240395 0.07353846 -0.092448354 -0.47913966 0.19489673 0.22201106 -0.3444959 -0.11100044 -0.096215345 0.06619587 -0.3138207 0.18059015 -0.06732094 -0.02812995 0.33846384 -0.017537348 -0.010661771 -0.13497347 -0.15463068 -0.31457 0.050484713 -0.12981713 -0.17753343 -0.002194985 0.28965956 -0.13808854 0.19771875 -0.14127302 0.077784695 -0.057992645
أنفسهم 0.10493906 -0.024304517 0.13565704 0.09812931 -0.1309626 0.0533657 -0.14037198 -0.08936634 -0.10608603 -0.023153614 -0.086023845 0.09235485 -0.0078003407 -0.18736969 -0.009250548 0.077791445 0.23718926 0.0024931245 -0.21608579 -0.20360348 0.16888545 0.027251815 0.05092504 -0.22487393 -0.09629621 -0.019018803 0.067442045 0.09967356 -0.25954163 0.15443951 -0.107573844 0.062711045 -0.10618691 -0.17111497 -0.09335603 0.08300492 0.06762199 0.012690508 -0.23383026 0.1827893 0.017397283 0.093219995 0.14475495 0.14063779 -0.103285894 0.11043664 -0.2359815 -0.13424584 -0.07367476 0.07782537 -0.1387858 -0.18820423 0.12359248 -0.18201339 -0.22070451 -0.037522603 0.105714835 0.028414207 0.26865575 0.06655701 -0.04987912 0.08765397 0.16476198 0.08941108 -0.15850419 0.010447744 -0.040956885 -0.11340727 0.1991146 -0.118588604 0.22517766 0.04261075 -0.056933712 -0.24946484 0.09976433 0.10303035 -0.1879577 -0.055338778 -0.052995328 0.047327686 -0.1511545 0.08872806 -0.033810988 -0.012066503 0.1777544 0.0012423458 0.0014083491 -0.06625713 -0.071142614 -0.16497953 0.022733087 -0.08288229 -0.108893216 -0.0049209697 0.15240094 -0.08318958 0.11461279 -0.060292847 0.032124896 -0.03732471
يشعرون 0.033430155 -0.002301407 0.04073719 0.025662255 -0.036020078 0.012875651 -0.036893554 -0.024603585 -0.033311736 -0.0075517353 -0.024965178 0.027857186 0.0006567467 -0.058190845 0.0030167021 0.027302904 0.07128971 0.0055104443 -0.06121341 -0.06347671 0.052248675 0.0064147394 0.020739662 -0.065890856 -0.029253947 -0.0069438317 0.019568501 0.029495994 -0.07905174 0.04880938 -0.034156986 0.021288466 -0.026541002 -0.052693497 -0.033976723 0.023036135 0.021320045 0.0046420535 -0.07492192 0.054781064 0.005697967 0.0279567 0.04450982 0.04902956 -0.030904898 0.028754372 -0.07043371 -0.046486367 -0.025165424 0.023498964 -0.03772308 -0.05565643 0.042657472 -0.051033232 -0.06935216 -0.011114484 0.034759328 0.00509614 0.078865446 0.022213751 -0.020339904 0.01964811 0.05209298 0.031299144 -0.046552785 -0.001868324 -0.014042582 -0.036569785 0.059839077 -0.03179391 0.06982754 0.014058875 -0.017641088 -0.07749331 0.031412132 0.034837447 -0.051995464 -0.013027794 -0.011220289 0.008605402 -0.045538794 0.032578506 -0.011443784 -0.00036359834 0.05007135 -0.0016818957 0.0035817812 -0.017260648 -0.02210566 -0.051894862 0.012587255 -0.02674156 -0.028348286 -0.00040102922 0.045275103 -0.019411169 0.03438489 -0.023375692 0.014017801 -0.012618051
مرض 0.05064054 -0.017353859 0.071371146 0.05107759 -0.067787975 0.030984558 -0.0701476 -0.050295427 -0.050576266 -0.011377016 -0.03779169 0.04779474 -0.0010161638 -0.09007245 -0.006599252 0.035138503 0.118288696 -0.0027064255 -0.11200464 -0.1070943 0.08446291 0.010675327 0.022183683 -0.11265756 -0.05513741 -0.011515417 0.03199418 0.04755614 -0.13431162 0.08250004 -0.05501827 0.03130063 -0.050728597 -0.081970565 -0.052120112 0.040733196 0.03503985 0.00421263 -0.12087154 0.087412894 0.013074006 0.053074062 0.07477553 0.07104431 -0.04995065 0.0592459 -0.12530668 -0.071109176 -0.03560956 0.04378817 -0.07151372 -0.09409756 0.06179495 -0.088774934 -0.113804676 -0.02167731 0.052629165 0.019879177 0.13890652 0.0346129 -0.03174805 0.04612914 0.090843126 0.039879657 -0.08364568 0.004846926 -0.024491226 -0.06034813 0.10483827 -0.060345538 0.1158642 0.02477357 -0.031169515 -0.12606104 0.046690535 0.04441177 -0.09414703 -0.031602886 -0.02017075 0.028972555 -0.081071645 0.05061145 -0.022412756 -0.0047679385 0.095774904 0.00041529268 -0.0028864504 -0.03151774 -0.040007073 -0.08751518 0.007089982 -0.04234682 -0.056949914 -0.0066097043 0.075091854 -0.042411014 0.05862602 -0.027047843 0.014847302 -0.014597536
أليم 0.09092297 -0.016080655 0.103975154 0.078546844 -0.117236786 0.039311327 -0.116300136 -0.07190247 -0.08275913 -0.015433273 -0.07070346 0.06868592 -0.01144381 -0.16707838 0.0054442715 0.06793382 0.19684747 0.007286709 -0.17541979 -0.17247802 0.13110487 0.025244422 0.040768705 -0.19112918 -0.074428774 -0.014547833 0.055000417 0.0947239 -0.21369416 0.12436357 -0.08934096 0.05449194 -0.08293511 -0.14520228 -0.081976585 0.076745406 0.054646596 0.014904226 -0.19939019 0.15526529 0.024596063 0.07033963 0.11340918 0.13151705 -0.07985388 0.092927754 -0.19030729 -0.11998165 -0.063352935 0.063498616 -0.1078602 -0.15750296 0.108302064 -0.15654713 -0.18488821 -0.028366279 0.0825009 0.02185011 0.21847078 0.053756718 -0.045738935 0.06005538 0.13447125 0.07765458 -0.13296226 0.0040585976 -0.036534674 -0.091600716 0.16473667 -0.091691904 0.19076784 0.029364135 -0.039404508 -0.2033438 0.07861896 0.09528418 -0.14477162 -0.05037525 -0.03511895 0.035025854 -0.13045934 0.07917012 -0.035615224 -0.010664708 0.15036148 -0.00036194132 -0.00084987876 -0.055590335 -0.066511735 -0.13562542 0.026195114 -0.060693752 -0.075479 -0.008057387 0.12270739 -0.059590813 0.08349457 -0.05165593 0.028720332 -0.027566448
كانوا 0.18291762 -0.038395725 0.23947465 0.17074694 -0.23552464 0.08457512 -0.24739952 -0.16889146 -0.18510525 -0.03807566 -0.14341868 0.15049821 -0.013974671 -0.34840748 -0.0028764359 0.15112935 0.41994056 0.008507521 -0.38161713 -0.36306238 0.30496085 0.04874995 0.09406785 -0.41190198 -0.17359781 -0.022227114 0.1256559 0.18153493 -0.45821682 0.2804125 -0.18390894 0.12090808 -0.1784271 -0.3082472 -0.17155202 0.15018807 0.120102644 0.017499318 -0.42248642 0.33067754 0.035073902 0.15794827 0.25906432 0.26987725 -0.18523912 0.18903646 -0.42745572 -0.24476261 -0.13492541 0.13711186 -0.24295945 -0.3334612 0.22582293 -0.32819647 -0.4077911 -0.07309678 0.18673109 0.052152913 0.4760348 0.11270797 -0.09684701 0.14922942 0.30156592 0.17123286 -0.29437405 0.017597547 -0.07413092 -0.2036965 0.35987628 -0.20431036 0.41565812 0.07117572 -0.09638428 -0.4341065 0.1752673 0.19054565 -0.32386398 -0.09235801 -0.088073604 0.0778734 -0.28312996 0.17358129 -0.07122053 -0.020750025 0.31908596 9.024114e-05 0.0014288616 -0.120995544 -0.1427173 -0.2917936 0.049070615 -0.13107552 -0.17992637 -0.014944863 0.26452693 -0.13644058 0.18960088 -0.110910416 0.064841025 -0.057257973
يكذبون 0.010868252 -0.0018451291 0.014993127 0.010657681 -0.01915297 0.0027274906 -0.020224305 -0.010253336 -0.01471666 -0.0021918344 -0.006635832 0.012387926 0.00034739758 -0.023892555 0.0011646232 0.006719365 0.030541075 -0.0041444357 -0.0293927 -0.024090149 0.024340276 0.0010860886 0.004269607 -0.02580133 -0.008259287 -0.0012563386 0.009561499 0.0123801865 -0.035923302 0.023755565 -0.012325255 0.0034251574 -0.009108346 -0.018912535 -0.00707196 0.0059380736 0.012338078 -0.0029579774 -0.034252394 0.018469995 0.0071479357 0.011798339 0.019225223 0.015790006 -0.015944676 0.013315227 -0.030443586 -0.01946932 -0.0054011215 0.009430103 -0.018615108 -0.018490398 0.019503104 -0.022513244 -0.024388634 -0.0030646743 0.01555942 0.0070867543 0.030809518 0.012316936 -0.010266529 0.0075192787 0.020010136 0.008865657 -0.021629877 0.0050187116 -0.0043038893 -0.017089125 0.025122188 -0.013857754 0.028695682 0.008265941 -0.007873496 -0.029962521 0.008649818 0.01308457 -0.023785057 -0.0074241003 -0.001427652 0.0021812443 -0.015305804 0.009434731 -0.007547962 0.00069677393 0.02353935 -0.001621978 0.00042942865 -0.013096119 -0.0092683565 -0.024593664 -0.0013705513 -0.011814249 -0.008471843 -0.002247732 0.016894693 -0.014069548 0.009273833 -0.0019920103 0.0030759156 -0.0045931963
قيل 0.07499175 -0.023173561 0.10089894 0.07066291 -0.098469615 0.042500578 -0.10451266 -0.06937246 -0.08259901 -0.022492813 -0.057924 0.06347893 -0.007346248 -0.13654174 -0.013439992 0.05951365 0.1731126 -0.002920402 -0.1532642 -0.15201308 0.124802485 0.011382018 0.031828005 -0.16214229 -0.070996426 -0.009923916 0.056287684 0.07547426 -0.19502938 0.11674886 -0.07495 0.0480602 -0.08236473 -0.12473005 -0.07201926 0.062139507 0.05677095 0.013082443 -0.17630267 0.13469547 0.01666239 0.07373883 0.10633492 0.10459601 -0.07288391 0.08509222 -0.17711501 -0.103076674 -0.054875925 0.056899026 -0.10237007 -0.13259988 0.092707545 -0.14062029 -0.15911537 -0.032979246 0.08162092 0.025347698 0.19901735 0.040397167 -0.04456262 0.066362545 0.12719636 0.06547424 -0.11978601 0.00083899463 -0.032542523 -0.0811688 0.15131043 -0.08913834 0.172277 0.026540225 -0.043476492 -0.18303908 0.07518865 0.073667824 -0.14034674 -0.035891164 -0.037941553 0.0376803 -0.117520615 0.0693669 -0.0276405 -0.013509477 0.13064034 0.0024084505 -0.0068119876 -0.052466337 -0.051088657 -0.1214701 0.019018903 -0.059542462 -0.076516815 -0.008774188 0.1117944 -0.06333309 0.081669524 -0.040760614 0.024630116 -0.029499639
الأرض 0.2352915 -0.045738097 0.30223536 0.2082625 -0.3003048 0.1093846 -0.32030615 -0.20749633 -0.24604736 -0.04648577 -0.17967446 0.18831033 -0.040334616 -0.45937404 0.008521394 0.20109947 0.54415214 0.019734196 -0.4945919 -0.46220836 0.38046202 0.06855102 0.1298876 -0.52386916 -0.20476398 -0.028835418 0.16341677 0.24539493 -0.57781357 0.362564 -0.24703714 0.14407174 -0.21561559 -0.39679134 -0.22656433 0.20184456 0.1375354 0.020677758 -0.5439079 0.41182986 0.050294627 0.19667485 0.31326792 0.3458105 -0.24838784 0.2420174 -0.5456897 -0.3231407 -0.1745894 0.18126717 -0.31162122 -0.42556742 0.27725872 -0.41152743 -0.534686 -0.09261561 0.23360623 0.06859626 0.61507696 0.15050031 -0.12297449 0.17596725 0.3739106 0.22148621 -0.35822093 0.028201183 -0.10628462 -0.27368197 0.46099567 -0.2726735 0.5347103 0.08998659 -0.11641957 -0.5587879 0.22407019 0.25842994 -0.40573725 -0.12581284 -0.10593794 0.092131354 -0.35732412 0.21373275 -0.09485468 -0.03263659 0.40818423 -0.009662455 -0.0020278818 -0.17145999 -0.18529063 -0.37057745 0.054080438 -0.16224852 -0.22369352 -0.014586597 0.34348726 -0.17414844 0.24345429 -0.15414506 0.086450435 -0.08211089
قالوا 0.18861674 -0.04473536 0.25211355 0.17903174 -0.25534177 0.08855634 -0.2550526 -0.16733591 -0.20000106 -0.037393786 -0.15075418 0.1582197 -0.021967664 -0.36066714 -0.0066133803 0.15012722 0.43915245 0.0045193727 -0.3999741 -0.38970628 0.31189016 0.045964718 0.09191435 -0.41742224 -0.18265618 -0.028636845 0.13839607 0.19455191 -0.4727783 0.29369646 -0.190243 0.115749955 -0.18518208 -0.3229319 -0.18123123 0.15974925 0.11730554 0.024173293 -0.4458539 0.3384388 0.040692702 0.16875514 0.2577593 0.2804425 -0.1933222 0.1994932 -0.4425419 -0.25791585 -0.13980813 0.14554425 -0.25608486 -0.33918816 0.2316364 -0.3416764 -0.42289734 -0.07571591 0.19064389 0.053611428 0.49345073 0.12003569 -0.10317669 0.15049556 0.30512708 0.17309451 -0.29602098 0.009317198 -0.08372644 -0.21165991 0.37893084 -0.21477623 0.4335852 0.07509723 -0.09937436 -0.45279706 0.18938132 0.19888641 -0.34094167 -0.10259159 -0.08292094 0.07664945 -0.28804922 0.18056267 -0.07206809 -0.02816457 0.32944474 -0.0004720772 0.00040152282 -0.12486824 -0.14552955 -0.30514306 0.04795181 -0.14028627 -0.19219598 -0.014551797 0.2771946 -0.14947896 0.1981083 -0.10864003 0.061917998 -0.061566457
إنهم 0.1049828 -0.03223346 0.14951089 0.09758452 -0.1479811 0.055906247 -0.14476055 -0.09339478 -0.11434452 -0.022572612 -0.09071526 0.09557559 -0.008808603 -0.20553781 -0.011410498 0.08359746 0.24817014 -0.004574642 -0.23182167 -0.22392564 0.18142271 0.023495976 0.055519782 -0.23742014 -0.10110807 -0.010799272 0.080933824 0.10969548 -0.27155668 0.17290743 -0.11488832 0.069892235 -0.1144072 -0.18588388 -0.10348642 0.08751839 0.07609101 0.00878514 -0.256583 0.19105574 0.020745864 0.099799626 0.1559981 0.15480734 -0.11045435 0.11778929 -0.25304407 -0.14508794 -0.08320454 0.08268592 -0.14350761 -0.19878715 0.13536543 -0.19685175 -0.2438811 -0.045727123 0.112467274 0.0361709 0.29194435 0.0648132 -0.057015587 0.08638541 0.18406662 0.1012661 -0.17946085 0.012049079 -0.045259662 -0.11903497 0.21624817 -0.1246597 0.24446099 0.042246506 -0.06457118 -0.2625226 0.10707432 0.111402065 -0.19715634 -0.051486615 -0.047073822 0.04587015 -0.17040884 0.101879194 -0.040077522 -0.0201734 0.19568782 -0.003880454 0.0006987765 -0.07947165 -0.07977391 -0.17425421 0.027509969 -0.07745911 -0.10602074 -0.0116359405 0.15850061 -0.0845013 0.121439286 -0.057407416 0.040043876 -0.04176471
آمن 0.044798315 -0.01687251 0.06534387 0.042463146 -0.06273149 0.01861343 -0.05599952 -0.038306598 -0.047245055 -0.01202634 -0.039759032 0.036856066 -0.008573082 -0.08163554 -0.008331692 0.029601296 0.104163095 -0.0021822234 -0.088871285 -0.08817152 0.07027572 0.006575067 0.015342451 -0.10043318 -0.04403481 -0.008830952 0.033567414 0.039284457 -0.10857608 0.06990899 -0.042448163 0.03389469 -0.04721333 -0.07354777 -0.03890829 0.03321214 0.026600854 0.0047083683 -0.09880618 0.07525194 0.008710511 0.043280788 0.058485046 0.062042177 -0.04580708 0.04465099 -0.106770284 -0.05794821 -0.03622773 0.035971843 -0.05581848 -0.076325566 0.058313917 -0.076436915 -0.098019585 -0.01843875 0.047664102 0.009833293 0.120714255 0.030221561 -0.025217686 0.038408406 0.0774423 0.04297136 -0.068864405 0.0072134202 -0.019296072 -0.051158153 0.08522811 -0.047804616 0.09910342 0.017391989 -0.027026972 -0.10755946 0.04104385 0.044511426 -0.0800217 -0.028166477 -0.022825737 0.016638467 -0.06816496 0.04225158 -0.016961062 -0.01034483 0.077909544 -0.0044224393 0.0028013608 -0.034322184 -0.033331037 -0.07115427 0.0109665245 -0.03943838 -0.04397629 -0.0052818125 0.06351857 -0.040264525 0.0501552 -0.025527393 0.017997691 -0.019625098
السفهاء 0.004997784 0.00032883396 -0.004179752 0.0042721527 -0.00041532592 -0.004166656 0.002435453 -0.0010654883 0.00032338864 0.00059769873 0.001632071 0.0036314516 0.004471866 -0.0011899669 -0.0035693853 -0.0024625838 -0.002694216 0.00062899065 0.0019417951 -0.0024536345 -0.0019641716 -0.0012567573 -0.0013269794 -0.0016193759 -0.0033252342 0.0032236674 0.003390726 -0.00051757117 -0.002205902 -0.00051445403 -0.004279665 0.00019656713 0.0038531185 -0.003562624 -0.0046778144 -0.0045938534 -0.0040825326 -0.0041452292 -0.00013394534 0.002578278 -0.0025805838 -0.0044476385 -0.004568027 -0.001211716 -0.0033740746 -0.0013790304 -0.0014633802 0.0030769252 -0.003170971 0.0039272597 -0.002207022 0.0023517476 -0.0006275064 -0.0011658138 -0.004063311 -0.002657027 -0.003696386 -0.0035094002 0.002507905 0.004305667 -0.0033663143 0.0013087608 0.0027367207 -0.003067239 -0.0003219174 0.005145139 0.000487944 -0.0001211753 0.0010043365 -0.0030065042 -0.0028809481 -0.0021703506 0.0007416975 0.0012976913 -0.000448309 -0.0010761172 0.00036280835 -0.0021516776 0.004729629 -0.00026648646 0.0026994536 0.000844324 0.0027843062 0.0048918216 0.004639079 -0.003202666 0.0029391001 -0.0030722255 0.003417945 0.0038771636 0.004395924 0.0023454842 0.0021298141 0.0038593838 -0.0038563684 0.0039810073 0.003447191 0.0012093337 -0.0032362624 0.0017083407
يعلمون 0.10335634 -0.027363107 0.14112766 0.09656027 -0.14433305 0.05576687 -0.1486768 -0.092853904 -0.10791416 -0.021207875 -0.08044087 0.087984145 -0.013110746 -0.20948043 -0.0047286744 0.09173124 0.25654143 0.0023724304 -0.22993696 -0.21395804 0.17313346 0.030524412 0.05603144 -0.24414912 -0.1057996 -0.014359069 0.08142964 0.11181103 -0.26329976 0.16353022 -0.1089836 0.06639551 -0.1082958 -0.18543771 -0.104571864 0.0909848 0.06148344 0.009801986 -0.25736803 0.1925294 0.028462922 0.09445819 0.14882892 0.1634942 -0.11012208 0.11257909 -0.24723649 -0.1516379 -0.07594101 0.07901654 -0.13777235 -0.1937774 0.13481364 -0.19673333 -0.24401829 -0.04350157 0.111551635 0.033679456 0.28103492 0.07406564 -0.05341268 0.08061478 0.16819654 0.09709935 -0.16763833 0.010785029 -0.050061043 -0.12750286 0.21971357 -0.12599024 0.24616644 0.038636066 -0.052232485 -0.26241353 0.107122794 0.115589574 -0.18839219 -0.058225866 -0.0535528 0.04460461 -0.16661221 0.097808145 -0.03767633 -0.014018792 0.18607044 -0.004794445 -0.0007360213 -0.07739568 -0.07995432 -0.17116293 0.028342541 -0.07845214 -0.11079135 -0.012631194 0.15780817 -0.08032863 0.11518166 -0.06885843 0.039923485 -0.03138536
خلوا 0.03164408 -0.008163178 0.039345067 0.021468792 -0.034524288 0.012381341 -0.033296943 -0.02238694 -0.0298229 -0.004748028 -0.024597488 0.026214907 -0.005278412 -0.048117343 0.00072719285 0.023905631 0.05995756 -0.006448158 -0.054286588 -0.053282507 0.042105008 0.0032562106 0.00804756 -0.061375808 -0.021862486 0.0005141282 0.023182232 0.027943294 -0.064989336 0.04422595 -0.029254816 0.015597075 -0.02728054 -0.039964065 -0.02606261 0.020736773 0.0157854 6.816955e-05 -0.057734832 0.050527353 0.006681621 0.026200306 0.036819566 0.031684823 -0.022868088 0.03071604 -0.057753198 -0.032037057 -0.018496793 0.024432775 -0.03469956 -0.050426636 0.038072493 -0.050751157 -0.060042247 -0.0065221973 0.023926994 0.006560186 0.07008287 0.018534904 -0.012568318 0.024196297 0.047085676 0.025409508 -0.045666173 0.0010787388 -0.014142711 -0.032114707 0.04783661 -0.026481535 0.061583042 0.0123625705 -0.015538464 -0.06700237 0.023083616 0.023922157 -0.044243984 -0.010091957 -0.010427063 0.0073964354 -0.040305343 0.023504267 -0.0129384715 0.0008709137 0.04836653 0.004138483 0.0035914192 -0.020630548 -0.022676978 -0.043781117 0.005392825 -0.021488039 -0.023788564 -0.002593633 0.040453758 -0.019806651 0.026465653 -0.012663223 0.011853831 -0.0057572266
معكم 0.051512573 -0.014268428 0.065682866 0.04814683 -0.061498936 0.023374086 -0.06928499 -0.042730186 -0.05068286 -0.01728236 -0.038505413 0.045476053 -0.00024042893 -0.082029596 -0.004115215 0.040844265 0.11701748 -0.0064898296 -0.106987685 -0.10331943 0.083028734 0.006361857 0.023839006 -0.10960477 -0.04850181 -0.0035067562 0.038515072 0.042131666 -0.12597224 0.07569876 -0.051758274 0.030626552 -0.05071725 -0.086241886 -0.043856267 0.044145633 0.032160215 0.0042020576 -0.11144103 0.08700676 0.014956516 0.044621848 0.072430216 0.071312495 -0.045389723 0.05080254 -0.11408043 -0.062332615 -0.034560863 0.040751077 -0.063983925 -0.09023413 0.058552727 -0.091542445 -0.11231758 -0.024448812 0.05417136 0.01953432 0.13261533 0.030593254 -0.02538971 0.044717435 0.08345807 0.04649916 -0.07809646 0.0039017296 -0.019560894 -0.055423833 0.10325307 -0.053253315 0.108676836 0.022204865 -0.02555774 -0.12085772 0.043185376 0.043586396 -0.09387936 -0.021500764 -0.01962711 0.019829933 -0.07724432 0.04167487 -0.016811429 -0.0047181435 0.08494203 0.003938679 0.0016840519 -0.03445919 -0.032165833 -0.08338702 0.013602206 -0.039719258 -0.05404087 -0.0034730232 0.067597814 -0.04374286 0.054537185 -0.020878538 0.016197 -0.015070389
طغيانهم 0.005378628 0.0017587598 0.0021502175 -2.3435918e-05 -0.008897028 0.0019570163 -0.0029641858 -0.002851908 -0.006169323 2.6356021e-05 -0.0007031517 0.007016642 -0.0041029314 -0.010515279 -0.00030932366 0.002278693 0.014222287 -0.003505662 -0.007891465 -0.012817362 0.011322679 -0.0009688431 0.0042999857 -0.011167195 -0.00010992808 -0.0042798896 -0.0012075459 0.007059389 -0.015458997 0.00961818 -0.0003513788 0.004043428 -6.222958e-05 -0.0042716637 -0.0070167873 0.0065707383 -0.0010477484 -0.0021763463 -0.005837648 0.006893373 -0.0025829887 0.0016251948 0.002219995 0.0030593579 -0.0038228661 0.0059070773 -0.006337576 -0.00090461597 -0.0021034696 -0.0008225364 -0.010343975 -0.007815428 0.0044827037 -0.0055970354 -0.013008983 -0.00048326195 0.005573337 0.005667372 0.012114316 0.0065461583 -0.006025058 -0.00015220314 0.01200961 0.00023488002 -0.0032108983 0.0048626643 0.0013879766 -0.004682029 0.012021538 -0.0030103712 0.006308686 -0.00079169957 -0.0021142769 -0.012492083 0.008606151 0.0061679473 -0.0060464577 0.0017921554 -0.0044402005 0.004323978 -0.003645614 0.00855304 0.003039031 -0.0016127396 0.009991091 -0.0031985177 0.0022690874 -0.006610702 -0.005682719 -0.0068359356 0.0050306506 -0.00828937 -0.007282116 -0.0007228611 0.0073759933 -0.0061988365 0.004221885 0.0019580612 -0.002808684 -0.002491822
يعمهون 0.011420273 -0.00042121857 0.0128122885 0.010767699 -0.012239191 0.003356691 -0.015987594 -0.005404575 -0.0057707904 -0.000114193565 -0.002479157 0.008113754 -0.004622256 -0.012820538 0.0005524946 0.003564742 0.022736948 0.0011944745 -0.016877828 -0.018988596 0.009496827 0.006497093 0.006025014 -0.014229955 -0.0061921133 -0.0054290886 0.00749852 0.0031214068 -0.024557771 0.01085064 -0.007071964 0.008343699 -0.01230282 -0.008665909 -0.008423951 0.00535493 0.0037584542 0.0057363645 -0.015370097 0.010897379 0.0053590685 0.009556182 0.012312614 0.016020905 -0.012343001 0.01253583 -0.023241842 -0.014305665 -0.010352045 0.0090248715 -0.009491984 -0.016793886 0.012192247 -0.015520205 -0.020268386 -0.0004624618 0.0049738204 -0.001713567 0.019991312 0.0006614466 -0.0075916345 0.0049313935 0.010248545 0.0030510004 -0.009847119 0.0032130897 -0.0022291492 -0.01421938 0.01980716 -0.008978272 0.014768589 0.0064792284 -0.0024825914 -0.019802578 0.004631396 0.008282711 -0.010599171 -0.0029521475 -0.004619883 0.0008931958 -0.0074232006 0.00815661 -0.0020161704 -0.0011562544 0.0103498185 0.0023732502 -0.0019865911 -0.008792496 -0.001995153 -0.0099957725 0.005371153 -0.006179487 -0.011394103 0.003201756 0.016532889 -0.011298048 0.012877949 -0.0068123466 -0.0012310795 -0.0076808874
اشتروا -0.00084690424 -0.0026220686 0.00032544602 -0.0019009765 -0.0009920385 0.0010217486 -0.0062341094 -0.0044855485 -0.0032271955 0.0031052688 0.0012408934 0.0035619745 0.0033771538 -0.0018677551 -0.003996144 -0.0017236755 0.0037292095 0.0043695653 -0.0022455459 -0.002359586 0.0033448897 0.003150159 0.0013538101 -0.0012571681 -0.0050241887 0.00025671936 0.0019656445 -0.0007446703 -0.0035086088 0.00022812886 -0.0010397153 -0.002825431 0.002411861 -0.0012353259 0.0020518708 0.0036168399 -0.00031922176 0.00075438444 -0.0016176542 0.0030766786 0.004495171 0.0049706516 -0.000115008326 0.002074923 0.0012224148 0.0027710665 0.0011964145 0.0020977189 -0.0039262665 0.0029676047 -0.0012704635 -0.000438798 -0.001860842 0.0012844254 -0.007187763 0.00025567 -0.0012091548 0.0029769056 0.0030729752 -0.0015944955 0.004054032 0.005577034 -0.0005114435 0.0046914476 -0.005955041 0.002445536 0.0007968001 0.002328332 -0.0016815979 -0.00024106365 0.0006139623 -0.004023708 -0.004421494 -0.008277368 -0.0023148372 0.0061777225 -0.0059939213 -0.0029634824 -0.00043048468 -0.0026561785 -0.004138348 0.00058691634 -0.004506448 0.004050276 0.0037838076 0.0015222483 0.004030304 -0.005582124 -0.0021645597 -0.0032954025 -0.0003841948 -0.0006926912 -0.002362484 -0.0018881065 0.0016680709 0.0027634026 0.0028372773 0.00037732243 0.0027427182 -0.0018020067
الضلالة 0.01210417 -0.0009998276 0.011986515 0.00871211 -0.013556101 -1.1302531e-05 -0.01627703 -0.0053635873 -0.008713099 -0.0061007263 -0.0117481 0.008607196 -0.0017072891 -0.019969173 -0.003512221 0.008660716 0.020950235 0.0018155341 -0.019008428 -0.012264482 0.018090274 0.0053974246 0.0038162414 -0.017198067 -0.004119792 -0.002012891 0.0032376344 0.012792854 -0.0181758 0.01720347 -0.005087143 0.00998026 -0.008375112 -0.01445115 -0.0057182843 0.00679825 0.0101967715 -0.0034320613 -0.01874381 0.011083657 0.0062570055 0.01016654 0.014956694 0.012978931 -0.007004629 0.004230212 -0.016753253 -0.013759747 -0.0076551433 0.0027648986 -0.009871425 -0.018424781 0.0090144565 -0.019609377 -0.02212755 -0.0013616056 0.012974381 -0.0016066929 0.017218603 0.0086905025 -0.0036995304 0.008894921 0.013550062 0.010415669 -0.018117473 0.0029173256 -0.0012755853 -0.012342311 0.020858727 -0.0060155224 0.014436328 0.005645446 -0.00843462 -0.020920727 0.008920635 0.009115698 -0.019293657 -0.004651243 -5.0809467e-05 -0.0004771673 -0.010093521 0.007453662 -0.0009145157 0.0028635196 0.019517759 -0.0031755094 -0.0020182463 -0.008041777 -0.0109499255 -0.015014837 0.0058518234 -0.0051352796 -0.0071341293 0.002917258 0.010095836 -0.010839907 0.0113128815 -0.0035296374 0.0058532925 0.00095500343
بالهدى 0.026309025 -0.0033586128 0.029085357 0.01667434 -0.029264143 0.011423684 -0.029790193 -0.02087839 -0.019508261 -0.003230907 -0.0194656 0.021878276 -0.003815406 -0.044458233 0.0041149063 0.015922397 0.057024837 0.006304405 -0.047632597 -0.050382063 0.03515742 0.010850052 0.014706986 -0.05698406 -0.024441669 -0.003473769 0.01712207 0.029252537 -0.057833046 0.04089827 -0.02658471 0.015122018 -0.02378455 -0.040829204 -0.021978127 0.01877334 0.017197477 0.0038440526 -0.056195058 0.04524672 0.009284997 0.02113337 0.034478974 0.03218709 -0.023345744 0.024706956 -0.05672598 -0.028537747 -0.018800398 0.02131743 -0.030583851 -0.041562445 0.030104365 -0.03906309 -0.050758123 -0.00787756 0.022985876 0.005607322 0.06320672 0.016574895 -0.017139044 0.017585281 0.037332 0.018696636 -0.04004376 -0.0010790677 -0.012682702 -0.029036634 0.047140993 -0.024394553 0.05616153 0.010891651 -0.008266651 -0.05930544 0.019585548 0.026580852 -0.039270334 -0.013457602 -0.007192816 0.005860645 -0.040206466 0.01807015 -0.008109377 -0.0044668484 0.036914047 0.0010523199 0.004420772 -0.014515186 -0.013490036 -0.04078018 0.008156387 -0.014711821 -0.026338896 -0.005998308 0.029610736 -0.021981968 0.023452334 -0.011335321 0.008556398 -0.0038870703
فما 0.13396937 -0.033187468 0.17501129 0.12043475 -0.16531245 0.0673358 -0.1709699 -0.12146469 -0.13338508 -0.026672402 -0.10421445 0.11703968 -0.016811207 -0.23367338 -0.012949325 0.0954119 0.3061098 -0.0057731867 -0.26736885 -0.267796 0.21375796 0.029346412 0.059211835 -0.28409085 -0.12130265 -0.022542382 0.09547643 0.12996657 -0.32690635 0.19821665 -0.12946957 0.08098455 -0.12949304 -0.21811928 -0.12425751 0.1075968 0.091470726 0.010621789 -0.29512796 0.23100612 0.026876865 0.11917549 0.1809098 0.18198356 -0.12682323 0.14108124 -0.29983297 -0.16735737 -0.0939755 0.09609874 -0.17192304 -0.23601973 0.15598713 -0.23837088 -0.27893603 -0.055935327 0.13827941 0.03685673 0.34247458 0.08019596 -0.07509571 0.105151266 0.21517491 0.11125151 -0.2055577 0.0062356913 -0.058641426 -0.1482804 0.25812706 -0.14552367 0.2903433 0.049529206 -0.07825915 -0.31196246 0.13065583 0.12821674 -0.23372164 -0.06368192 -0.06364594 0.052283462 -0.19533701 0.116407104 -0.04570369 -0.01646848 0.22943372 -2.1946202e-05 0.00066238455 -0.08910636 -0.09779875 -0.20744424 0.033586305 -0.102439426 -0.13301726 -0.014389266 0.18891543 -0.10288503 0.1460935 -0.07232282 0.039844718 -0.04689264
مثلهم 0.022711579 -0.0075726453 0.029734518 0.01878888 -0.022097338 0.0118461605 -0.021478025 -0.01667104 -0.016323416 -0.0014209794 -0.014740078 0.014258042 -0.004974913 -0.034461685 -0.00080148166 0.018429536 0.04287234 -0.0004834883 -0.03935246 -0.034122992 0.028968785 0.008024132 0.011768755 -0.046747528 -0.015728211 -0.002958655 0.016803844 0.016803259 -0.045284323 0.03419403 -0.02439364 0.015808966 -0.023425426 -0.03052197 -0.015116406 0.016833898 0.008379824 -0.0020242361 -0.042211965 0.03137234 0.006773983 0.018723123 0.022643095 0.02343177 -0.018684842 0.018561285 -0.041346148 -0.029341348 -0.017113708 0.012093355 -0.030298468 -0.031800747 0.022160262 -0.03262549 -0.0452746 -0.003990074 0.017244369 0.0037323046 0.05458051 0.009448757 -0.0148759335 0.019081103 0.03151828 0.013396503 -0.025491007 -0.002610354 -0.008516429 -0.020951934 0.038069077 -0.020800225 0.040566213 0.003985665 -0.011143789 -0.044390388 0.015555369 0.021644946 -0.030803273 -0.006923618 -0.0043237545 0.006375219 -0.024928978 0.016249202 -0.0063504726 -0.0038920916 0.029280497 -0.0039726263 -0.00033603387 -0.017093496 -0.012767108 -0.03460184 0.004581798 -0.012894482 -0.023293504 -0.005142644 0.025969759 -0.017371314 0.016763862 -0.006079522 0.009968987 -0.0013712593
كمثل 0.026444683 -0.008280003 0.030003935 0.028298918 -0.040113725 0.006162731 -0.037093394 -0.026484907 -0.027622951 0.0010779249 -0.025335673 0.021134835 -0.00040711355 -0.06420546 0.002107966 0.024038607 0.07119353 0.0009767495 -0.06300241 -0.061550055 0.046349194 0.011182827 0.022220923 -0.0696737 -0.020344177 -0.0036201333 0.017854614 0.035130776 -0.07193314 0.040777516 -0.034824185 0.019811584 -0.028496481 -0.048390735 -0.02471313 0.022254018 0.01039826 0.0044484856 -0.06617259 0.054043084 0.0034472076 0.02365051 0.03779718 0.04275208 -0.032205235 0.029454408 -0.069787145 -0.041194633 -0.018704671 0.024543963 -0.037639663 -0.051392812 0.037028216 -0.055290285 -0.06318858 -0.010271658 0.023494037 0.010638152 0.078031085 0.015589844 -0.015490942 0.024823388 0.040578555 0.031081378 -0.045629963 0.004798593 -0.0147023015 -0.035673615 0.053771142 -0.030815288 0.06334165 0.007041349 -0.011282524 -0.06262074 0.027812645 0.04061658 -0.050913174 -0.018908802 -0.010001209 0.0055991113 -0.048471954 0.027327765 -0.01417134 -0.004776614 0.044913534 0.001358038 -0.0028004728 -0.01764154 -0.027633676 -0.043944083 0.009229285 -0.013142307 -0.023651421 -0.002007018 0.04655748 -0.024938963 0.023014657 -0.020810531 0.010597381 -0.013113439
نارا 0.036094457 -0.008758766 0.04266472 0.030630814 -0.05040704 0.020996885 -0.052250445 -0.034149848 -0.033549603 -0.0057491767 -0.032860987 0.033179574 0.0001702951 -0.07047624 0.0035072647 0.027413817 0.0878581 0.0036263731 -0.075543165 -0.06829711 0.058892578 0.010152647 0.021433849 -0.07641026 -0.034353334 -0.0004068968 0.025587732 0.042559866 -0.09071352 0.056614477 -0.034902282 0.017027782 -0.033962127 -0.057321347 -0.039673068 0.025945976 0.015506849 0.00078811334 -0.08138251 0.06394114 0.011387484 0.031330366 0.050891683 0.056120757 -0.037536148 0.038384486 -0.0786687 -0.0498428 -0.029026384 0.028934503 -0.0432549 -0.06356848 0.044931684 -0.062327776 -0.0780125 -0.011258206 0.031447727 0.011196013 0.09599181 0.025625437 -0.018093862 0.024394697 0.05539094 0.03381462 -0.058684845 0.0067642923 -0.019685982 -0.041711003 0.07336462 -0.041644383 0.08319617 0.013412889 -0.020409252 -0.08575071 0.031991355 0.03966256 -0.057913586 -0.022108454 -0.015596946 0.016361246 -0.05246145 0.034350954 -0.01545499 -0.00469164 0.06114172 0.0025238972 -0.0040152282 -0.021084161 -0.02463702 -0.058384147 0.014013158 -0.024538014 -0.037826665 0.0011773121 0.055550996 -0.028499003 0.03588637 -0.021665068 0.010132839 -0.009824676
فلما 0.13820027 -0.038998764 0.18971701 0.13597237 -0.18908623 0.06891554 -0.18509147 -0.12369313 -0.14819635 -0.032631613 -0.1117504 0.12077452 -0.007955366 -0.26105615 -0.008347208 0.11188806 0.3319269 -0.0049698027 -0.29453498 -0.28660804 0.23309211 0.025144385 0.06321522 -0.309981 -0.1365964 -0.016564379 0.09547254 0.14113007 -0.34804317 0.22263911 -0.14327376 0.09175714 -0.1394559 -0.23312476 -0.13173527 0.12019556 0.094033085 0.010474183 -0.32052583 0.24223189 0.033488315 0.1253357 0.19091533 0.2014966 -0.13219899 0.14716403 -0.32143041 -0.18699855 -0.10320208 0.10390266 -0.19301595 -0.24914719 0.17852561 -0.25229752 -0.31274757 -0.065044366 0.14041708 0.037653964 0.37151784 0.08578106 -0.07870245 0.11098724 0.23350362 0.12592234 -0.22871073 0.010236329 -0.062815905 -0.15451209 0.28448206 -0.15577444 0.31459433 0.06327003 -0.082211554 -0.3357979 0.13186128 0.13407645 -0.24957332 -0.0698406 -0.06727112 0.061808836 -0.21655993 0.12884586 -0.048128076 -0.022337476 0.24850333 0.003900127 -0.0008956732 -0.098823406 -0.10791069 -0.231278 0.03410314 -0.11098855 -0.14877713 -0.013719569 0.20870079 -0.11296558 0.15448819 -0.07862255 0.04821464 -0.050987914
حوله 0.008895166 -0.0066851135 0.017650116 0.008048535 -0.015489436 0.0022020692 -0.021068498 -0.0072345566 -0.010787577 -0.002348245 -0.012382808 0.013241995 -0.0012412873 -0.029533383 -0.0017780783 0.011445522 0.026274098 0.005070815 -0.027521718 -0.021977592 0.02215457 0.005008406 0.0046024714 -0.024696693 -0.00820998 -0.0015418313 0.009896177 0.010257257 -0.031454764 0.019344341 -0.012214912 0.005463374 -0.009728294 -0.017998122 -0.0149462 0.010662168 0.0115264 -0.00041455246 -0.031873066 0.026340645 -0.0009505332 0.013564389 0.017180659 0.023651384 -0.0177785 0.01548492 -0.03221034 -0.019012492 -0.008635077 0.008735835 -0.013924232 -0.021993177 0.016079832 -0.024326857 -0.03274553 -0.0063489694 0.0130529795 -0.00018851599 0.035523217 0.0036652442 -0.0019383135 0.012576112 0.02542349 0.016195867 -0.016094796 0.00021966599 -0.0076210257 -0.0168265 0.024086606 -0.015525391 0.026771877 0.006068578 -0.011509573 -0.027920801 0.015655618 0.013132572 -0.021731678 -0.0028687497 -0.0036582518 0.00344095 -0.016522514 0.011853957 0.0001159925 -0.0015536116 0.026817176 0.0011177261 0.0019087892 -0.005841896 -0.011381578 -0.018398255 0.0070713265 -0.00967795 -0.011985092 -0.0023073996 0.014492039 -0.0059367027 0.01691755 -0.01214112 0.0092426315 -0.0049183364
ظلمات 0.015042672 -0.0040971413 0.024810206 0.018528607 -0.016944384 0.010029508 -0.022558216 -0.013272218 -0.011948589 -0.0071089086 -0.008236729 0.018103953 -0.0035387748 -0.030075097 -0.0046675587 0.016650446 0.037732117 -0.0003131675 -0.030289445 -0.033735935 0.031388424 0.005106736 0.011640341 -0.035341233 -0.020690203 -0.001315266 0.010433108 0.016496547 -0.045900755 0.02907117 -0.021126349 0.015373856 -0.020977594 -0.029223435 -0.011581518 0.009264002 0.009888774 0.0009085351 -0.034028158 0.02494658 0.00093533716 0.013658518 0.022270788 0.023006868 -0.011282786 0.017497547 -0.04082881 -0.021367356 -0.012411866 0.013205117 -0.025857024 -0.026454743 0.017336726 -0.027762156 -0.035765667 -0.008807983 0.016257845 0.0002450687 0.04103531 0.009275302 -0.0059313793 0.011985492 0.027712515 0.0128507335 -0.029146697 0.00058598456 -0.0063949493 -0.016754825 0.027018603 -0.017562743 0.03618702 0.011524856 -0.008728595 -0.043536656 0.013737358 0.012292637 -0.026172135 -0.0049228556 -0.0037208053 0.011302449 -0.025539879 0.014190585 -0.010562519 -0.0005009935 0.028499687 -0.0032815519 -0.0023758253 -0.01183797 -0.016115788 -0.030236222 0.0056622736 -0.008367831 -0.016157735 0.0034270277 0.019209296 -0.015359677 0.020390118 -0.012690069 0.0063623823 -0.0048388494
يبصرون 0.015834846 -0.004457219 0.023831261 0.016251175 -0.024320217 0.014002433 -0.027514735 -0.01379207 -0.0186469 -0.008414677 -0.013218842 0.015731556 -0.006570327 -0.034756795 0.0031974544 0.020064276 0.04640798 -0.0019824167 -0.04563258 -0.04408162 0.027898366 0.008441632 0.013702424 -0.044835392 -0.023391368 -0.002935165 0.01643411 0.019457739 -0.051956642 0.030244987 -0.019402243 0.015760254 -0.022827402 -0.029991724 -0.014009546 0.011835145 0.013171127 -0.00045133373 -0.045966566 0.029850116 0.00015783205 0.013065781 0.028769173 0.02726558 -0.021722415 0.021398185 -0.044458117 -0.02481218 -0.015058709 0.010935785 -0.027784953 -0.034834187 0.027054776 -0.035081718 -0.03907421 -0.007917563 0.017121356 0.0106397355 0.05306512 0.015479629 -0.008070234 0.016407063 0.034618527 0.019295929 -0.03470369 0.00061136147 -0.0071041905 -0.018352492 0.035329722 -0.022539377 0.0435983 0.0118120415 -0.009639555 -0.04402557 0.014320746 0.023244943 -0.0342539 -0.007847231 -0.00571003 0.0074501014 -0.026698502 0.01763293 -0.010430014 -0.005378045 0.037647083 -0.0023108139 0.002306983 -0.016031252 -0.013361892 -0.029227126 0.005685226 -0.018903183 -0.023638152 0.002978938 0.02441752 -0.02011572 0.020386685 -0.007571806 0.01084306 -0.0024612874
فهم 0.08350988 -0.018873138 0.10836457 0.07310058 -0.10806877 0.040802393 -0.115923025 -0.07757799 -0.090912394 -0.020815367 -0.06364703 0.072344854 -0.014382028 -0.15712643 -0.004774862 0.070102565 0.19349094 0.006290163 -0.17781803 -0.16513012 0.13547869 0.021887835 0.046028543 -0.18698026 -0.08050767 -0.013928407 0.06121972 0.086192556 -0.2089903 0.13185018 -0.08526148 0.053126205 -0.079118 -0.14105229 -0.07593636 0.07289817 0.057671428 0.0076663354 -0.1957931 0.1465708 0.017990982 0.06880132 0.11505683 0.11957211 -0.08828217 0.088541724 -0.19142336 -0.11763248 -0.06630946 0.059235137 -0.11296482 -0.15115193 0.102476545 -0.154383 -0.18958446 -0.03858208 0.08846942 0.025156835 0.21813527 0.05124673 -0.04880991 0.06964895 0.13927498 0.073253304 -0.13404311 0.0036966156 -0.03882869 -0.09984311 0.1607718 -0.09774156 0.19347723 0.033661027 -0.04860348 -0.19937043 0.08219221 0.08858152 -0.1502806 -0.045437537 -0.039907694 0.030895906 -0.12469569 0.08122281 -0.026605032 -0.015758181 0.14625625 0.0025949331 -0.0008353104 -0.053935092 -0.0654627 -0.13828555 0.025098506 -0.062298223 -0.08839933 -0.0034938366 0.11921935 -0.063086875 0.08949201 -0.05256956 0.024366342 -0.027414808
يرجعون 0.04403788 -0.014088707 0.055984035 0.040889125 -0.06226706 0.023220392 -0.06304265 -0.043594055 -0.047150224 -0.0149673745 -0.038821213 0.039023206 -0.0064931856 -0.08084101 -0.005699784 0.03363444 0.108722754 -0.001412059 -0.09126185 -0.09666557 0.073203236 0.01028976 0.02194734 -0.09589328 -0.046198677 -0.0071917456 0.03425226 0.044360057 -0.114467986 0.07330723 -0.051274735 0.031040251 -0.0411629 -0.07346674 -0.043954276 0.03518678 0.027030744 0.0026644107 -0.10730689 0.0835787 0.0055808467 0.03691492 0.06334809 0.06520662 -0.041948617 0.049875204 -0.10375831 -0.058400042 -0.03216917 0.031162528 -0.05948061 -0.082612425 0.051734563 -0.08487543 -0.10502679 -0.016558195 0.04473478 0.014599932 0.11663262 0.03247527 -0.019617872 0.033519827 0.071006164 0.040741157 -0.06851702 0.00264308 -0.01456978 -0.046965793 0.08731978 -0.056457322 0.104319684 0.01961169 -0.024308652 -0.1074408 0.048941936 0.04898859 -0.076416224 -0.024491003 -0.022478115 0.020198554 -0.072375104 0.040041577 -0.013025941 -0.001974889 0.078274325 -0.0035723825 0.0007648652 -0.03300811 -0.02882594 -0.07424997 0.008163162 -0.029976398 -0.042255443 -0.0067819273 0.064151086 -0.030603461 0.050531857 -0.022171503 0.016689843 -0.013163375
السماء 0.1763925 -0.040948756 0.23171191 0.16116424 -0.22417983 0.083521195 -0.2402335 -0.15219434 -0.18048593 -0.038053535 -0.13485114 0.14505886 -0.027598772 -0.3389576 0.0030226242 0.14008088 0.41172242 0.011136226 -0.37500447 -0.3505629 0.2918909 0.051529028 0.09112426 -0.38973537 -0.1604716 -0.030117832 0.12463324 0.18357989 -0.43801782 0.27193367 -0.1840959 0.10952571 -0.16494323 -0.29419398 -0.1763241 0.1480851 0.104051724 0.023831803 -0.4101172 0.31091464 0.043044727 0.15202369 0.23950404 0.25332674 -0.18240598 0.18987463 -0.4034704 -0.23859815 -0.13173792 0.13671105 -0.23965944 -0.32405278 0.21534535 -0.31620815 -0.3902971 -0.07592349 0.17745972 0.053932305 0.46399102 0.11070184 -0.09204461 0.1388105 0.27937827 0.16761822 -0.27895242 0.016238881 -0.07737161 -0.19883516 0.3508543 -0.2006876 0.40595698 0.06302184 -0.09484727 -0.42328167 0.16686216 0.19309594 -0.31380415 -0.092350796 -0.083580144 0.067698374 -0.26936156 0.16657338 -0.06646704 -0.02811015 0.3044975 -0.0082155075 -0.0062959013 -0.12045137 -0.13315031 -0.2852618 0.038563877 -0.12307363 -0.17057219 -0.019204209 0.25575328 -0.13366117 0.1840177 -0.11584482 0.06023015 -0.05218229
آذانهم 0.019919137 -0.0038165892 0.02276073 0.010887795 -0.01825339 0.007303773 -0.018368216 -0.010469219 -0.014831142 -0.0067104045 -0.011337871 0.008394462 -0.004045799 -0.034846917 0.0011105208 0.013749891 0.041854955 0.006833179 -0.03389244 -0.035890687 0.02240383 0.005856169 0.007950245 -0.04111699 -0.0149668455 0.0008340656 0.011631608 0.014099248 -0.03957361 0.020174682 -0.01971403 0.0074260402 -0.017534351 -0.031913888 -0.018039737 0.010660934 0.0073177093 0.0006915028 -0.040152643 0.030823223 0.003998887 0.012591444 0.016697891 0.022339744 -0.017044323 0.017735953 -0.033529118 -0.026169863 -0.014701391 0.011173022 -0.018639473 -0.031512544 0.02053078 -0.03277406 -0.033212546 -0.0032492762 0.020037832 0.0013889086 0.042038318 0.0062080305 -0.005765238 0.00842312 0.021344975 0.020812638 -0.025848567 0.00026813417 -0.011142956 -0.018058188 0.030993914 -0.020512076 0.041617315 0.004737488 -0.0026001632 -0.03707558 0.012369903 0.020781431 -0.02471119 -0.008002226 -0.0048385626 0.008065187 -0.028984036 0.013101116 -0.006734198 -0.0019306076 0.024372209 -0.005488071 0.003264072 -0.010680524 -0.014470727 -0.020855222 0.0013119937 -0.010511691 -0.013115525 0.0033137542 0.018730097 -0.012035244 0.017648859 -0.012241404 0.0033511433 -0.005609017
الموت 0.07081956 -0.01192083 0.08219226 0.066006534 -0.09355404 0.035888378 -0.09288031 -0.06559938 -0.07512531 -0.010062306 -0.054652926 0.05870585 -0.0072252713 -0.1388645 -0.0006892076 0.06107062 0.15915005 0.004473497 -0.14584818 -0.13466759 0.111533724 0.024137465 0.037075583 -0.15225816 -0.059433624 -0.012979765 0.047517467 0.07881875 -0.16866224 0.10967408 -0.071907416 0.046647135 -0.05890053 -0.11580904 -0.06701772 0.06103281 0.038973644 0.008347936 -0.15937378 0.1271113 0.020905685 0.058090035 0.09415377 0.10659358 -0.07402739 0.07614162 -0.1546201 -0.09524429 -0.05217113 0.050160717 -0.09265541 -0.12384828 0.07883232 -0.12611672 -0.1525437 -0.032352824 0.06397803 0.022245975 0.18238053 0.04667023 -0.032545462 0.048799347 0.10590669 0.06292089 -0.103344336 0.004171294 -0.028075345 -0.080288485 0.13945878 -0.07372233 0.15821116 0.02252053 -0.030791825 -0.16855977 0.06808902 0.07710682 -0.121684395 -0.035767257 -0.03007736 0.028224789 -0.10925252 0.064825505 -0.029051682 -0.012348514 0.117550895 -0.007680624 -0.0046815407 -0.045880865 -0.057976756 -0.11186984 0.022319093 -0.04852587 -0.0667828 -0.0032083578 0.096177034 -0.046496954 0.07327789 -0.049006507 0.031185063 -0.024189424
